<?xml version="1.0"?>
<opencv_storage>
<cascade>
  <stageType>BOOST</stageType>
  <featureType>LBP</featureType>
  <height>40</height>
  <width>40</width>
  <stageParams>
    <boostType>GAB</boostType>
    <minHitRate>9.9900001287460327e-01</minHitRate>
    <maxFalseAlarm>5.0000000000000000e-01</maxFalseAlarm>
    <weightTrimRate>9.4999999999999996e-01</weightTrimRate>
    <maxDepth>1</maxDepth>
    <maxWeakCount>100</maxWeakCount></stageParams>
  <featureParams>
    <maxCatCount>256</maxCatCount>
    <featSize>1</featSize></featureParams>
  <stageNum>20</stageNum>
  <stages>
    <!-- stage 0 -->
    <_>
      <maxWeakCount>3</maxWeakCount>
      <stageThreshold>-9.4163924455642700e-01</stageThreshold>
      <weakClassifiers>
        <_>
          <internalNodes>
            0 -1 18 -16385 -32769 -49217 -1 1031749631 -32769 2147425791
            1073153663</internalNodes>
          <leafValues>
            -8.0719423294067383e-01 8.9750891923904419e-01</leafValues></_>
        <_>
          <internalNodes>
            0 -1 95 432521723 1037041875 -251141865 -1784983145
            -1694133269 998343305 -1447001601 150912703</internalNodes>
          <leafValues>
            -8.6573523283004761e-01 7.3321419954299927e-01</leafValues></_>
        <_>
          <internalNodes>
            0 -1 26 -1848032097 -145160873 807244253 -47099503 655363431
            -13025058 2017329679 2142704151</internalNodes>
          <leafValues>
            -7.9913330078125000e-01 7.3129022121429443e-01</leafValues></_></weakClassifiers></_>
    <!-- stage 1 -->
    <_>
      <maxWeakCount>4</maxWeakCount>
      <stageThreshold>-1.6248458623886108e+00</stageThreshold>
      <weakClassifiers>
        <_>
          <internalNodes>
            0 -1 14 -33 -36318113 -788527777 -61425 -2223969 -343799553
            -12116049 2139029861</internalNodes>
          <leafValues>
            -7.7352470159530640e-01 8.0448067188262939e-01</leafValues></_>
        <_>
          <internalNodes>
            0 -1 58 881030143 366548183 927126751 496979209 1179265465
            998541453 -603791633 738190303</internalNodes>
          <leafValues>
            -7.9496252536773682e-01 7.3740023374557495e-01</leafValues></_>
        <_>
          <internalNodes>
            0 -1 56 -170393601 2143486067 -720971849 -11543155
            -166209317 -1131810365 -645692449 960234720</internalNodes>
          <leafValues>
            -8.6591333150863647e-01 5.7968813180923462e-01</leafValues></_>
        <_>
          <internalNodes>
            0 -1 57 483988793 -766474987 -774188413 -1113259879
            -738105197 -360710143 -796781877 -1098239253</internalNodes>
          <leafValues>
            -7.2280800342559814e-01 6.7011457681655884e-01</leafValues></_></weakClassifiers></_>
    <!-- stage 2 -->
    <_>
      <maxWeakCount>5</maxWeakCount>
      <stageThreshold>-9.5791226625442505e-01</stageThreshold>
      <weakClassifiers>
        <_>
          <internalNodes>
            0 -1 108 -67108929 536608767 -15 1073725439 -1 1073659903
            -1073741825 419248127</internalNodes>
          <leafValues>
            -7.1941274404525757e-01 7.6731675863265991e-01</leafValues></_>
        <_>
          <internalNodes>
            0 -1 24 2073918943 -716340449 1409371103 -250391797
            2030523885 -124780341 1636123323 2143253467</internalNodes>
          <leafValues>
            -7.0435464382171631e-01 6.6782444715499878e-01</leafValues></_>
        <_>
          <internalNodes>
            0 -1 33 -938354257 -190898160 -783728259 1460768899
            881354927 998768640 -509030437 851620261</internalNodes>
          <leafValues>
            -7.8074896335601807e-01 5.4151910543441772e-01</leafValues></_>
        <_>
          <internalNodes>
            0 -1 16 -103154185 -788463332 1629553170 1161990674
            -2130685663 -2000420848 -1073545146 -547157469</internalNodes>
          <leafValues>
            -6.4922642707824707e-01 6.5323185920715332e-01</leafValues></_>
        <_>
          <internalNodes>
            0 -1 61 83887364 1494581393 268697865 390312321 270141611
            -1135990088 -613924641 -650095603</internalNodes>
          <leafValues>
            -7.2889590263366699e-01 5.8023363351821899e-01</leafValues></_></weakClassifiers></_>
    <!-- stage 3 -->
    <_>
      <maxWeakCount>5</maxWeakCount>
      <stageThreshold>-9.5919424295425415e-01</stageThreshold>
      <weakClassifiers>
        <_>
          <internalNodes>
            0 -1 19 -711985153 -35331 -1 -32905 2146909695 2113896447
            704610267 2001957746</internalNodes>
          <leafValues>
            -6.5329051017761230e-01 7.4949222803115845e-01</leafValues></_>
        <_>
          <internalNodes>
            0 -1 59 322246013 -595460933 203742207 -15364471 155736239
            -1644134199 -1735709473 1022317011</internalNodes>
          <leafValues>
            -7.2522479295730591e-01 5.9712696075439453e-01</leafValues></_>
        <_>
          <internalNodes>
            0 -1 115 -539756033 -1932811625 -251408373 -2003348909
            -1073495893 -1029647991 -796409384 14548990</internalNodes>
          <leafValues>
            -7.7848148345947266e-01 5.4604566097259521e-01</leafValues></_>
        <_>
          <internalNodes>
            0 -1 23 -294973 1056964531 -1074270409 -135069709 1987865970
            -1607886 -67143868 -25952461</internalNodes>
          <leafValues>
            -5.8643645048141479e-01 6.3928204774856567e-01</leafValues></_>
        <_>
          <internalNodes>
            0 -1 70 -1817185355 872420417 -1610497067 288473365
            -637238855 -1129807221 -938566421 71625605</internalNodes>
          <leafValues>
            -7.6600658893585205e-01 4.8364812135696411e-01</leafValues></_></weakClassifiers></_>
    <!-- stage 4 -->
    <_>
      <maxWeakCount>4</maxWeakCount>
      <stageThreshold>-4.5724958181381226e-01</stageThreshold>
      <weakClassifiers>
        <_>
          <internalNodes>
            0 -1 104 970317311 1032888733 335646745 1033101705
            -268439553 478314496 2146680977 788513679</internalNodes>
          <leafValues>
            -6.9509983062744141e-01 6.9916075468063354e-01</leafValues></_>
        <_>
          <internalNodes>
            0 -1 20 -998113793 1498516873 -1877949997 -610930287
            -326601024 -670038015 -1600050731 2142139252</internalNodes>
          <leafValues>
            -7.6267015933990479e-01 5.2639621496200562e-01</leafValues></_>
        <_>
          <internalNodes>
            0 -1 50 -36374642 -6487036 -1660915350 -183684717 1309469840
            -1457946611 -2013167454 -1185664</internalNodes>
          <leafValues>
            -6.9405776262283325e-01 4.9882820248603821e-01</leafValues></_>
        <_>
          <internalNodes>
            0 -1 82 352532957 1425213457 281351647 1977422169 8995005
            -1387159414 771823804 2070570497</internalNodes>
          <leafValues>
            -7.3853236436843872e-01 5.0169223546981812e-01</leafValues></_></weakClassifiers></_>
    <!-- stage 5 -->
    <_>
      <maxWeakCount>5</maxWeakCount>
      <stageThreshold>-8.0580574274063110e-01</stageThreshold>
      <weakClassifiers>
        <_>
          <internalNodes>
            0 -1 116 -1090523393 732872703 -1090539585 801095679
            -1073741825 1006551039 -1073741889 570425343</internalNodes>
          <leafValues>
            -6.1717355251312256e-01 6.7813110351562500e-01</leafValues></_>
        <_>
          <internalNodes>
            0 -1 85 -242774049 -246070459 -2096688879 -15521545
            -922504309 -1396006910 -1246787176 215799192</internalNodes>
          <leafValues>
            -7.6404190063476562e-01 5.0236535072326660e-01</leafValues></_>
        <_>
          <internalNodes>
            0 -1 78 152050417 399299611 -1660446241 -1646408301
            142609659 -1702229856 -2070852881 2075345498</internalNodes>
          <leafValues>
            -6.9798791408538818e-01 4.8083934187889099e-01</leafValues></_>
        <_>
          <internalNodes>
            0 -1 103 -46138063 -248185251 -50921935 2031156272
            2121784480 2050818046 -33596162 -791020037</internalNodes>
          <leafValues>
            -5.4804885387420654e-01 6.6464561223983765e-01</leafValues></_>
        <_>
          <internalNodes>
            0 -1 71 1483329656 -553021248 -1073663713 2142250040
            -1040015112 -615874176 -1722285830 -669777920</internalNodes>
          <leafValues>
            -6.2378805875778198e-01 5.5625474452972412e-01</leafValues></_></weakClassifiers></_>
    <!-- stage 6 -->
    <_>
      <maxWeakCount>5</maxWeakCount>
      <stageThreshold>-4.2711192369461060e-01</stageThreshold>
      <weakClassifiers>
        <_>
          <internalNodes>
            0 -1 25 -43523 -1 2147188735 -1 2146926071 -567297
            2147442175 -537438337</internalNodes>
          <leafValues>
            -3.8422390818595886e-01 7.6255708932876587e-01</leafValues></_>
        <_>
          <internalNodes>
            0 -1 87 -33555460 -196612 -50528259 -33685507 -16777217
            -131084 -318963720 -453904385</internalNodes>
          <leafValues>
            -5.4630577564239502e-01 6.1588704586029053e-01</leafValues></_>
        <_>
          <internalNodes>
            0 -1 15 -547360769 -712523619 -914357920 -183467622
            -841957021 -482574335 -1685945437 1937236339</internalNodes>
          <leafValues>
            -5.7703804969787598e-01 5.6212729215621948e-01</leafValues></_>
        <_>
          <internalNodes>
            0 -1 46 358427067 -1122819631 -582925997 -1124069244
            948519099 -1097989752 -1373721621 -57925492</internalNodes>
          <leafValues>
            -5.6881755590438843e-01 5.3258448839187622e-01</leafValues></_>
        <_>
          <internalNodes>
            0 -1 30 -867768410 -1001207862 1359484288 1437716888
            671398568 -595083253 1099956508 -2012553</internalNodes>
          <leafValues>
            -5.9129405021667480e-01 5.4993623495101929e-01</leafValues></_></weakClassifiers></_>
    <!-- stage 7 -->
    <_>
      <maxWeakCount>6</maxWeakCount>
      <stageThreshold>-1.2330729961395264e+00</stageThreshold>
      <weakClassifiers>
        <_>
          <internalNodes>
            0 -1 21 -16778241 -231425 -2 -2113 -1082171529 1577004405
            2147188604 2138273651</internalNodes>
          <leafValues>
            -5.0166112184524536e-01 6.6889184713363647e-01</leafValues></_>
        <_>
          <internalNodes>
            0 -1 80 953221109 948490396 -1056944079 1033357441
            -2139032881 -1450999805 -196884066 -1098137406</internalNodes>
          <leafValues>
            -5.0021529197692871e-01 5.9249377250671387e-01</leafValues></_>
        <_>
          <internalNodes>
            0 -1 28 -932330552 -550100121 -1073741757 -452771496
            -878146906 -1999990578 -888760116 -1978270396</internalNodes>
          <leafValues>
            -6.8237042427062988e-01 4.5438376069068909e-01</leafValues></_>
        <_>
          <internalNodes>
            0 -1 27 -175251716 -73850475 1358958713 -15396566
            -2117268580 -1702325735 142683051 856630287</internalNodes>
          <leafValues>
            -5.5898165702819824e-01 5.3402662277221680e-01</leafValues></_>
        <_>
          <internalNodes>
            0 -1 10 -539564482 1880260736 19040395 -117293050 -402186235
            -2130673664 -2012995071 -98309577</internalNodes>
          <leafValues>
            -6.0886180400848389e-01 4.7572028636932373e-01</leafValues></_>
        <_>
          <internalNodes>
            0 -1 7 -527698722 -218017513 67143952 558235658 1116324578
            -930545649 1084522715 399577351</internalNodes>
          <leafValues>
            -6.8828976154327393e-01 4.5767596364021301e-01</leafValues></_></weakClassifiers></_>
    <!-- stage 8 -->
    <_>
      <maxWeakCount>7</maxWeakCount>
      <stageThreshold>-7.3407381772994995e-01</stageThreshold>
      <weakClassifiers>
        <_>
          <internalNodes>
            0 -1 34 911269853 205967829 -1862259875 -115629239
            1803619041 2081316992 -2104954677 1944243852</internalNodes>
          <leafValues>
            -6.6379308700561523e-01 6.1613690853118896e-01</leafValues></_>
        <_>
          <internalNodes>
            0 -1 114 -667561580 2014422548 68387332 -1005995765
            -535264825 -1475809279 -2136174560 -922756417</internalNodes>
          <leafValues>
            -5.4768836498260498e-01 5.3777551651000977e-01</leafValues></_>
        <_>
          <internalNodes>
            0 -1 86 185603449 363135249 1502150103 -581576413
            -2042154311 -108789632 -871880461 2123174435</internalNodes>
          <leafValues>
            -6.6092669963836670e-01 4.4815242290496826e-01</leafValues></_>
        <_>
          <internalNodes>
            0 -1 0 -768570480 -73156733 -168035469 -42491158 -843669510
            -336334854 -1620276278 -1463802880</internalNodes>
          <leafValues>
            -5.4564911127090454e-01 5.5488646030426025e-01</leafValues></_>
        <_>
          <internalNodes>
            0 -1 97 -61418235 -1122134147 1651506597 425504588
            -1204777300 -28246931 -2132645878 -1742823235</internalNodes>
          <leafValues>
            -5.0840914249420166e-01 6.0840904712677002e-01</leafValues></_>
        <_>
          <internalNodes>
            0 -1 65 1364583308 2030179617 -787279471 -407830211
            -1844207179 -1693843327 1326703610 -1173675094</internalNodes>
          <leafValues>
            -5.3922170400619507e-01 5.7827836275100708e-01</leafValues></_>
        <_>
          <internalNodes>
            0 -1 11 -986647626 -32226677 1359021314 -1710075824
            536906114 -2008793088 1216467147 -415771161</internalNodes>
          <leafValues>
            -5.8042871952056885e-01 5.6576049327850342e-01</leafValues></_></weakClassifiers></_>
    <!-- stage 9 -->
    <_>
      <maxWeakCount>6</maxWeakCount>
      <stageThreshold>-4.0360856056213379e-01</stageThreshold>
      <weakClassifiers>
        <_>
          <internalNodes>
            0 -1 110 -720055305 877741191 323096843 -1756262377
            -796475199 789004545 -1001602923 14402234</internalNodes>
          <leafValues>
            -6.2173914909362793e-01 6.0121953487396240e-01</leafValues></_>
        <_>
          <internalNodes>
            0 -1 32 -192711971 -783220607 -1035961073 -787421065
            411269323 -1933485923 -1937032757 1516990763</internalNodes>
          <leafValues>
            -6.3810425996780396e-01 4.7005543112754822e-01</leafValues></_>
        <_>
          <internalNodes>
            0 -1 81 -2091103440 -1719103460 17977725 -1242099558
            495028405 -652670847 -1954508104 801642504</internalNodes>
          <leafValues>
            -6.2116140127182007e-01 4.8206740617752075e-01</leafValues></_>
        <_>
          <internalNodes>
            0 -1 112 -547098161 -788430848 -1056812784 688246787
            -1052580583 -401358847 68224 143520013</internalNodes>
          <leafValues>
            -7.1677708625793457e-01 3.9374938607215881e-01</leafValues></_>
        <_>
          <internalNodes>
            0 -1 92 -647980587 -11169679 268534811 -102809393
            -1071068720 -83033894 302279352 1291617384</internalNodes>
          <leafValues>
            -6.6127347946166992e-01 4.4666844606399536e-01</leafValues></_>
        <_>
          <internalNodes>
            0 -1 63 -871781129 2124272964 1860808575 -1921385172
            -1074229250 -1235195041 -810644593 -2008863230</internalNodes>
          <leafValues>
            -4.6328142285346985e-01 6.4405834674835205e-01</leafValues></_></weakClassifiers></_>
    <!-- stage 10 -->
    <_>
      <maxWeakCount>7</maxWeakCount>
      <stageThreshold>-9.0496134757995605e-01</stageThreshold>
      <weakClassifiers>
        <_>
          <internalNodes>
            0 -1 67 180296565 1065320439 1073741759 -1073741825
            1073692629 1065320335 2071690745 2146959231</internalNodes>
          <leafValues>
            -5.5118107795715332e-01 6.1557787656784058e-01</leafValues></_>
        <_>
          <internalNodes>
            0 -1 48 2094570904 -1791486736 -2147482981 -1724526449
            -2138524775 -2003287807 134029 44315385</internalNodes>
          <leafValues>
            -5.9360295534133911e-01 4.6098583936691284e-01</leafValues></_>
        <_>
          <internalNodes>
            0 -1 3 -897391022 -2109724670 -1072553852 353075330
            146850018 -1912438648 1879433232 -553393757</internalNodes>
          <leafValues>
            -5.7395154237747192e-01 5.1876413822174072e-01</leafValues></_>
        <_>
          <internalNodes>
            0 -1 119 -644359757 -216317166 268509185 1077973546
            -2139090560 -1694298080 285917359 -871047453</internalNodes>
          <leafValues>
            -5.3740608692169189e-01 5.3057885169982910e-01</leafValues></_>
        <_>
          <internalNodes>
            0 -1 72 1024496757 429752521 92541341 -1123483262 -784052232
            -593457000 -2011424579 684212244</internalNodes>
          <leafValues>
            -6.3387006521224976e-01 4.4509303569793701e-01</leafValues></_>
        <_>
          <internalNodes>
            0 -1 6 -867506744 -619069223 -1879015339 1566769409
            1082132649 134283394 -29128308 -170286929</internalNodes>
          <leafValues>
            -6.0230886936187744e-01 4.8592489957809448e-01</leafValues></_>
        <_>
          <internalNodes>
            0 -1 75 2063724820 1076097313 33587283 1763561540
            -1737973073 -251068376 -536821106 487727152</internalNodes>
          <leafValues>
            -6.3890826702117920e-01 4.7953417897224426e-01</leafValues></_></weakClassifiers></_>
    <!-- stage 11 -->
    <_>
      <maxWeakCount>6</maxWeakCount>
      <stageThreshold>-5.5785787105560303e-01</stageThreshold>
      <weakClassifiers>
        <_>
          <internalNodes>
            0 -1 76 1124323665 1258508881 268437147 -166854391
            -1022132021 -1156422749 1225314712 1019758640</internalNodes>
          <leafValues>
            -6.1085975170135498e-01 5.8504223823547363e-01</leafValues></_>
        <_>
          <internalNodes>
            0 -1 117 -201075713 -1596919083 -788479658 49519045
            -570318454 1083425 -652170273 212851231</internalNodes>
          <leafValues>
            -6.9576728343963623e-01 4.2060476541519165e-01</leafValues></_>
        <_>
          <internalNodes>
            0 -1 22 -2096903459 -1065221632 4243473 -804171449
            -1442750004 -903800808 1211713899 2041277391</internalNodes>
          <leafValues>
            -6.1298197507858276e-01 4.7410649061203003e-01</leafValues></_>
        <_>
          <internalNodes>
            0 -1 42 -666847938 -787342314 33653213 -1219395437
            -1064787462 -1683241343 -1048540481 422906129</internalNodes>
          <leafValues>
            -6.5506416559219360e-01 4.4021657109260559e-01</leafValues></_>
        <_>
          <internalNodes>
            0 -1 8 -535376909 -1845469182 -1055812203 537102370
            -939334718 -1708980861 -1030706285 -426552477</internalNodes>
          <leafValues>
            -5.4081040620803833e-01 5.3908979892730713e-01</leafValues></_>
        <_>
          <internalNodes>
            0 -1 77 293289277 -1732050668 537089165 488214805 51515801
            -1693876214 1479084303 1058430993</internalNodes>
          <leafValues>
            -7.7388960123062134e-01 3.5416522622108459e-01</leafValues></_></weakClassifiers></_>
    <!-- stage 12 -->
    <_>
      <maxWeakCount>6</maxWeakCount>
      <stageThreshold>-6.2201303243637085e-01</stageThreshold>
      <weakClassifiers>
        <_>
          <internalNodes>
            0 -1 36 -482290834 -585777083 90210773 -578709156 424151156
            973211650 2018590999 2136429074</internalNodes>
          <leafValues>
            -7.0889490842819214e-01 5.5696934461593628e-01</leafValues></_>
        <_>
          <internalNodes>
            0 -1 84 -117965539 286113800 8458265 347980005 -1744790356
            965345600 671285929 414535919</internalNodes>
          <leafValues>
            -5.2681803703308105e-01 4.7868940234184265e-01</leafValues></_>
        <_>
          <internalNodes>
            0 -1 90 -1532238341 767225788 -151011329 1069022197
            -33554435 -32769 -134217733 -1077936649</internalNodes>
          <leafValues>
            -4.9385988712310791e-01 5.9395825862884521e-01</leafValues></_>
        <_>
          <internalNodes>
            0 -1 74 253002048 -650967720 285756364 -577978102 1494237369
            -1182217798 -1144353682 159383552</internalNodes>
          <leafValues>
            -7.8244400024414062e-01 3.5642006993293762e-01</leafValues></_>
        <_>
          <internalNodes>
            0 -1 12 -911743657 1879478291 16896017 454197318 -1004109756
            -666714110 -2147466505 -14455241</internalNodes>
          <leafValues>
            -5.9331440925598145e-01 4.9373561143875122e-01</leafValues></_>
        <_>
          <internalNodes>
            0 -1 98 277295731 1430663315 1091240817 1360281649
            -670624789 169508867 537055371 796126207</internalNodes>
          <leafValues>
            -7.4887150526046753e-01 3.7074455618858337e-01</leafValues></_></weakClassifiers></_>
    <!-- stage 13 -->
    <_>
      <maxWeakCount>7</maxWeakCount>
      <stageThreshold>-7.6928144693374634e-01</stageThreshold>
      <weakClassifiers>
        <_>
          <internalNodes>
            0 -1 94 306500053 -542092271 -535788527 1078116497
            -1778318943 -1164328957 -1610562595 682361240</internalNodes>
          <leafValues>
            -6.3733333349227905e-01 5.4434782266616821e-01</leafValues></_>
        <_>
          <internalNodes>
            0 -1 38 -541130787 2147319807 -32769 -1073774593 -8514256
            -33636492 -1112466167 -1104412673</internalNodes>
          <leafValues>
            -3.7531864643096924e-01 6.1702412366867065e-01</leafValues></_>
        <_>
          <internalNodes>
            0 -1 62 -1332563920 -787480504 -1862249185 352388372
            -1174241080 -62242807 -2079746038 671612928</internalNodes>
          <leafValues>
            -6.2365877628326416e-01 4.0404155850410461e-01</leafValues></_>
        <_>
          <internalNodes>
            0 -1 4 -1025245213 -2001633616 -269484364 1534670672
            -855900183 -1653969164 140631254 -301465657</internalNodes>
          <leafValues>
            -3.9959669113159180e-01 6.6934257745742798e-01</leafValues></_>
        <_>
          <internalNodes>
            0 -1 41 -1319454275 -1786002721 -1560240876 -653192171
            -653260357 -351731447 -2112976310 2102612567</internalNodes>
          <leafValues>
            -5.8476001024246216e-01 4.5971220731735229e-01</leafValues></_>
        <_>
          <internalNodes>
            0 -1 109 -703498305 353726737 -1325330415 -1004384237
            -1639915439 541671680 -1876951032 12450476</internalNodes>
          <leafValues>
            -8.0432415008544922e-01 3.4877187013626099e-01</leafValues></_>
        <_>
          <internalNodes>
            0 -1 102 -792071777 -753856495 37765130 -1877867520
            -2013059062 -1845493718 58753034 -889198070</internalNodes>
          <leafValues>
            -5.1940727233886719e-01 5.1027137041091919e-01</leafValues></_></weakClassifiers></_>
    <!-- stage 14 -->
    <_>
      <maxWeakCount>9</maxWeakCount>
      <stageThreshold>-6.7855823040008545e-01</stageThreshold>
      <weakClassifiers>
        <_>
          <internalNodes>
            0 -1 88 -1275593212 1903456036 1073676276 2037677943
            -134218511 -579043476 1960673262 826408955</internalNodes>
          <leafValues>
            -3.8079470396041870e-01 6.2165772914886475e-01</leafValues></_>
        <_>
          <internalNodes>
            0 -1 118 -1078009871 800750973 -1073827905 -1464274945
            -1073741825 -1 -16385 -4225</internalNodes>
          <leafValues>
            -4.2807254195213318e-01 5.3090107440948486e-01</leafValues></_>
        <_>
          <internalNodes>
            0 -1 83 -589958891 1888488836 -1879014185 -1651304183
            -536804648 -836599224 626917 8513787</internalNodes>
          <leafValues>
            -5.0915527343750000e-01 4.6550738811492920e-01</leafValues></_>
        <_>
          <internalNodes>
            0 -1 79 294649872 -1681387119 268980533 2110062677 403183768
            -1697996623 53223625 486541344</internalNodes>
          <leafValues>
            -7.6284354925155640e-01 3.1645661592483521e-01</leafValues></_>
        <_>
          <internalNodes>
            0 -1 49 -285802802 -825598366 501350946 1995987976
            -331823458 -998968229 90546115 -708313529</internalNodes>
          <leafValues>
            -4.9541386961936951e-01 5.2624881267547607e-01</leafValues></_>
        <_>
          <internalNodes>
            0 -1 44 -2092949360 21106973 285413635 -686751615 1897441811
            -1978916211 -1340491111 2142030473</internalNodes>
          <leafValues>
            -5.7584804296493530e-01 4.4852313399314880e-01</leafValues></_>
        <_>
          <internalNodes>
            0 -1 120 -210015866 -800014336 536875547 -1400848350
            12821639 1375798403 -1476083649 1089204763</internalNodes>
          <leafValues>
            -5.5581665039062500e-01 4.8267716169357300e-01</leafValues></_>
        <_>
          <internalNodes>
            0 -1 2 -320342809 -891158811 -274038790 -1080869086
            -324603907 -1901430793 233567482 -828124798</internalNodes>
          <leafValues>
            -4.5041641592979431e-01 6.0165923833847046e-01</leafValues></_>
        <_>
          <internalNodes>
            0 -1 29 -285768205 -1590808590 1190864498 -1648893696
            -805974550 -1359134849 -948558104 1336370338</internalNodes>
          <leafValues>
            -4.9477970600128174e-01 5.5601936578750610e-01</leafValues></_></weakClassifiers></_>
    <!-- stage 15 -->
    <_>
      <maxWeakCount>7</maxWeakCount>
      <stageThreshold>-6.4433550834655762e-01</stageThreshold>
      <weakClassifiers>
        <_>
          <internalNodes>
            0 -1 13 -8195 -32769 -32769 -32778 2147433845 -33539
            2147303355 2080330623</internalNodes>
          <leafValues>
            -5.0210970640182495e-01 5.7687574625015259e-01</leafValues></_>
        <_>
          <internalNodes>
            0 -1 51 -1138912334 1929609416 43713071 828358788
            -1654620160 1000312975 -356502897 529473690</internalNodes>
          <leafValues>
            -5.0496727228164673e-01 4.5850250124931335e-01</leafValues></_>
        <_>
          <internalNodes>
            0 -1 68 2008066300 -1214814755 -1812344867 -542291523
            -1125436419 -1107413137 -1963184709 -1954020180</internalNodes>
          <leafValues>
            -4.3225175142288208e-01 5.5571836233139038e-01</leafValues></_>
        <_>
          <internalNodes>
            0 -1 5 -322765081 -523202302 1090793872 813748259 -347018518
            -905793139 1102053376 -466373401</internalNodes>
          <leafValues>
            -5.4084253311157227e-01 4.6318718791007996e-01</leafValues></_>
        <_>
          <internalNodes>
            0 -1 96 962739103 1745420672 1275167013 400277793 537564107
            277512392 1074267843 2140133849</internalNodes>
          <leafValues>
            -6.4489156007766724e-01 3.6628097295761108e-01</leafValues></_>
        <_>
          <internalNodes>
            0 -1 100 -482478267 -1686299809 -251691063 450198738
            -295407890 -125962766 -387089671 -621027618</internalNodes>
          <leafValues>
            -4.2134499549865723e-01 6.4088064432144165e-01</leafValues></_>
        <_>
          <internalNodes>
            0 -1 55 1212162624 -2071822208 -2076114539 218169353
            711549075 -1367179136 -1744459654 -393395452</internalNodes>
          <leafValues>
            -5.6054013967514038e-01 4.7090595960617065e-01</leafValues></_></weakClassifiers></_>
    <!-- stage 16 -->
    <_>
      <maxWeakCount>7</maxWeakCount>
      <stageThreshold>-7.5528591871261597e-01</stageThreshold>
      <weakClassifiers>
        <_>
          <internalNodes>
            0 -1 37 -8563203 -1073741825 2147434494 -32769 83692797 -9
            1870036991 -33718273</internalNodes>
          <leafValues>
            -2.2705313563346863e-01 6.9811320304870605e-01</leafValues></_>
        <_>
          <internalNodes>
            0 -1 113 -199246168 -662618079 939742977 -799995373
            -2012763264 -401078328 -2080247608 -1600001905</internalNodes>
          <leafValues>
            -5.5261874198913574e-01 4.3371784687042236e-01</leafValues></_>
        <_>
          <internalNodes>
            0 -1 73 -2077752108 1481670984 272652957 -73395264 729948884
            -1937111896 -1434449699 249569308</internalNodes>
          <leafValues>
            -7.2606432437896729e-01 3.2816803455352783e-01</leafValues></_>
        <_>
          <internalNodes>
            0 -1 91 -728658765 -1252848837 16839767 -1206582718
            -938466679 -1928822528 142657560 274035231</internalNodes>
          <leafValues>
            -5.5090165138244629e-01 4.6392464637756348e-01</leafValues></_>
        <_>
          <internalNodes>
            0 -1 47 -2136616560 -1790836478 16945553 -1785376175
            -2012245821 -2004154206 1212271073 -662191919</internalNodes>
          <leafValues>
            -5.0916671752929688e-01 4.8252037167549133e-01</leafValues></_>
        <_>
          <internalNodes>
            0 -1 66 1816642845 -753321776 419643701 -786792044
            -1290974049 -1733810979 690063807 475453552</internalNodes>
          <leafValues>
            -5.3646564483642578e-01 4.9475818872451782e-01</leafValues></_>
        <_>
          <internalNodes>
            0 -1 53 1427116284 2030161921 -2130636504 -1323556669
            -2113617780 -343375870 -1065318006 145230136</internalNodes>
          <leafValues>
            -6.2410145998001099e-01 4.1850939393043518e-01</leafValues></_></weakClassifiers></_>
    <!-- stage 17 -->
    <_>
      <maxWeakCount>7</maxWeakCount>
      <stageThreshold>-1.3466897010803223e+00</stageThreshold>
      <weakClassifiers>
        <_>
          <internalNodes>
            0 -1 35 1534812125 -163 -49162 -1073790977 -1073997999
            -8421385 -563916 -1867917</internalNodes>
          <leafValues>
            -3.4285715222358704e-01 6.2312924861907959e-01</leafValues></_>
        <_>
          <internalNodes>
            0 -1 111 -263793659 1894284595 2029375047 -51061315
            -193471488 784101207 -42021505 -61343409</internalNodes>
          <leafValues>
            -3.7091267108917236e-01 5.7218658924102783e-01</leafValues></_>
        <_>
          <internalNodes>
            0 -1 99 537345531 361575107 -1925144295 472907816
            -2113670005 -1442840568 -1924015427 1850417608</internalNodes>
          <leafValues>
            -6.6751086711883545e-01 3.5790139436721802e-01</leafValues></_>
        <_>
          <internalNodes>
            0 -1 69 1967178624 -2050129855 -1945941932 -108818280
            1150615607 -1063616509 115371 -83909750</internalNodes>
          <leafValues>
            -5.7029438018798828e-01 4.3614581227302551e-01</leafValues></_>
        <_>
          <internalNodes>
            0 -1 54 805370392 353374212 -1853746851 353632395 144818408
            -1727528808 582877960 671221762</internalNodes>
          <leafValues>
            -5.3870558738708496e-01 4.5617699623107910e-01</leafValues></_>
        <_>
          <internalNodes>
            0 -1 101 -226492545 -8421789 180275927 824880831 -454916085
            -160066980 -1036860274 -359676177</internalNodes>
          <leafValues>
            -4.2517355084419250e-01 6.4737385511398315e-01</leafValues></_>
        <_>
          <internalNodes>
            0 -1 52 -1205537727 -1185820411 -2145943493 -1123860059
            1907630033 -553811815 1519071366 -653704184</internalNodes>
          <leafValues>
            -5.2919518947601318e-01 5.0540375709533691e-01</leafValues></_></weakClassifiers></_>
    <!-- stage 18 -->
    <_>
      <maxWeakCount>8</maxWeakCount>
      <stageThreshold>-8.7472623586654663e-01</stageThreshold>
      <weakClassifiers>
        <_>
          <internalNodes>
            0 -1 121 1862266095 787391214 -16781635 183435239 -50331924
            -1608384529 -335090500 214957823</internalNodes>
          <leafValues>
            -4.6899223327636719e-01 5.9469699859619141e-01</leafValues></_>
        <_>
          <internalNodes>
            0 -1 40 -815726957 -217783568 799584199 -1413872990
            -188025190 -143097947 -1478290005 -548456493</internalNodes>
          <leafValues>
            -2.9572191834449768e-01 7.1810209751129150e-01</leafValues></_>
        <_>
          <internalNodes>
            0 -1 60 -727869044 -771653629 1074282563 1128350051 17371341
            -2147385305 1078027274 -812015094</internalNodes>
          <leafValues>
            -4.8753073811531067e-01 4.9660438299179077e-01</leafValues></_>
        <_>
          <internalNodes>
            0 -1 1 -1460940301 -184090431 268517681 -888078208
            -1065248628 -603447165 -1593720373 -905919003</internalNodes>
          <leafValues>
            -4.4848144054412842e-01 5.3247904777526855e-01</leafValues></_>
        <_>
          <internalNodes>
            0 -1 39 1367425744 1804810960 5469 1563236352 -795824397
            -106919800 -1551878424 238682191</internalNodes>
          <leafValues>
            -5.1396429538726807e-01 5.1488280296325684e-01</leafValues></_>
        <_>
          <internalNodes>
            0 -1 64 1427435552 -1055600620 -1056943865 -800882361
            -1106161965 -2135481206 1633723270 1628153856</internalNodes>
          <leafValues>
            -6.7621195316314697e-01 3.8139829039573669e-01</leafValues></_>
        <_>
          <internalNodes>
            0 -1 105 2025568810 1941962359 -424724377 380512938
            -2032334842 1581137446 -668037345 -554710481</internalNodes>
          <leafValues>
            -4.9650800228118896e-01 5.4813766479492188e-01</leafValues></_>
        <_>
          <internalNodes>
            0 -1 17 -775436085 1351254158 134283291 -784137646
            1078689799 -1910800247 -2146595891 1568129075</internalNodes>
          <leafValues>
            -5.1610046625137329e-01 5.4574227333068848e-01</leafValues></_></weakClassifiers></_>
    <!-- stage 19 -->
    <_>
      <maxWeakCount>8</maxWeakCount>
      <stageThreshold>-3.1237551569938660e-01</stageThreshold>
      <weakClassifiers>
        <_>
          <internalNodes>
            0 -1 89 -1359675915 -16924963 -1073840161 -197121 -185073692
            -557059 -17367043 79479844</internalNodes>
          <leafValues>
            -5.1739132404327393e-01 5.7195121049880981e-01</leafValues></_>
        <_>
          <internalNodes>
            0 -1 93 -763114951 1929941825 147456 2000946055 -2147385343
            16859136 -2080342007 291885135</internalNodes>
          <leafValues>
            -5.2043956518173218e-01 4.5161285996437073e-01</leafValues></_>
        <_>
          <internalNodes>
            0 -1 31 -535378982 561938560 1350631692 210534928
            -1769880680 -905424760 16786313 1432813683</internalNodes>
          <leafValues>
            -5.6726580858230591e-01 4.4811379909515381e-01</leafValues></_>
        <_>
          <internalNodes>
            0 -1 43 -913575389 -822050816 17895691 1704280337 1116448407
            -2119396468 587211666 -872959374</internalNodes>
          <leafValues>
            -4.9447312951087952e-01 5.0315767526626587e-01</leafValues></_>
        <_>
          <internalNodes>
            0 -1 107 -895569648 -2111139817 4247573 268435848
            -2147397344 -1442250494 -2079096517 -1674972149</internalNodes>
          <leafValues>
            -6.2817287445068359e-01 4.0143933892250061e-01</leafValues></_>
        <_>
          <internalNodes>
            0 -1 9 -1041315395 -788479931 17514882 -875786110
            -2147188575 -2146959228 -2147319601 1335118947</internalNodes>
          <leafValues>
            -6.6348046064376831e-01 3.5843324661254883e-01</leafValues></_>
        <_>
          <internalNodes>
            0 -1 106 -144720498 -26509750 182869710 -1281172307
            1735092736 -284934400 -1301078289 1880092751</internalNodes>
          <leafValues>
            -4.9810948967933655e-01 5.6629896163940430e-01</leafValues></_>
        <_>
          <internalNodes>
            0 -1 45 -827347664 1101702624 615496277 -680527887
            -850923809 -571271684 -455673975 -639372094</internalNodes>
          <leafValues>
            -4.6200084686279297e-01 5.8054959774017334e-01</leafValues></_></weakClassifiers></_></stages>
  <features>
    <_>
      <rect>
        0 1 10 3</rect></_>
    <_>
      <rect>
        0 6 2 7</rect></_>
    <_>
      <rect>
        0 8 2 6</rect></_>
    <_>
      <rect>
        0 8 3 5</rect></_>
    <_>
      <rect>
        0 9 2 5</rect></_>
    <_>
      <rect>
        0 9 4 5</rect></_>
    <_>
      <rect>
        0 10 8 4</rect></_>
    <_>
      <rect>
        0 11 6 5</rect></_>
    <_>
      <rect>
        0 14 2 3</rect></_>
    <_>
      <rect>
        0 16 4 6</rect></_>
    <_>
      <rect>
        0 18 2 5</rect></_>
    <_>
      <rect>
        0 18 3 4</rect></_>
    <_>
      <rect>
        0 19 2 5</rect></_>
    <_>
      <rect>
        0 22 4 6</rect></_>
    <_>
      <rect>
        0 22 6 6</rect></_>
    <_>
      <rect>
        0 23 3 3</rect></_>
    <_>
      <rect>
        0 24 2 3</rect></_>
    <_>
      <rect>
        0 24 3 3</rect></_>
    <_>
      <rect>
        0 24 11 5</rect></_>
    <_>
      <rect>
        0 25 4 4</rect></_>
    <_>
      <rect>
        0 25 9 4</rect></_>
    <_>
      <rect>
        0 26 3 3</rect></_>
    <_>
      <rect>
        0 26 3 4</rect></_>
    <_>
      <rect>
        0 27 2 2</rect></_>
    <_>
      <rect>
        0 27 5 4</rect></_>
    <_>
      <rect>
        0 28 6 3</rect></_>
    <_>
      <rect>
        0 29 6 2</rect></_>
    <_>
      <rect>
        1 2 13 6</rect></_>
    <_>
      <rect>
        1 5 11 8</rect></_>
    <_>
      <rect>
        1 6 4 3</rect></_>
    <_>
      <rect>
        1 7 4 6</rect></_>
    <_>
      <rect>
        1 15 2 3</rect></_>
    <_>
      <rect>
        1 28 4 3</rect></_>
    <_>
      <rect>
        1 28 13 2</rect></_>
    <_>
      <rect>
        1 29 13 2</rect></_>
    <_>
      <rect>
        1 30 2 2</rect></_>
    <_>
      <rect>
        1 30 7 1</rect></_>
    <_>
      <rect>
        1 31 5 2</rect></_>
    <_>
      <rect>
        1 32 2 1</rect></_>
    <_>
      <rect>
        2 3 11 2</rect></_>
    <_>
      <rect>
        2 6 6 1</rect></_>
    <_>
      <rect>
        2 6 10 4</rect></_>
    <_>
      <rect>
        3 3 9 5</rect></_>
    <_>
      <rect>
        4 6 3 2</rect></_>
    <_>
      <rect>
        4 11 10 3</rect></_>
    <_>
      <rect>
        5 7 2 2</rect></_>
    <_>
      <rect>
        5 32 10 2</rect></_>
    <_>
      <rect>
        6 6 2 2</rect></_>
    <_>
      <rect>
        6 6 11 4</rect></_>
    <_>
      <rect>
        6 9 2 1</rect></_>
    <_>
      <rect>
        6 10 9 7</rect></_>
    <_>
      <rect>
        7 12 8 5</rect></_>
    <_>
      <rect>
        8 12 7 3</rect></_>
    <_>
      <rect>
        8 25 2 1</rect></_>
    <_>
      <rect>
        9 4 9 1</rect></_>
    <_>
      <rect>
        10 8 6 1</rect></_>
    <_>
      <rect>
        10 19 10 7</rect></_>
    <_>
      <rect>
        10 30 3 3</rect></_>
    <_>
      <rect>
        10 30 10 2</rect></_>
    <_>
      <rect>
        10 31 5 2</rect></_>
    <_>
      <rect>
        11 8 6 10</rect></_>
    <_>
      <rect>
        11 11 6 3</rect></_>
    <_>
      <rect>
        12 3 9 2</rect></_>
    <_>
      <rect>
        12 6 4 2</rect></_>
    <_>
      <rect>
        12 12 6 4</rect></_>
    <_>
      <rect>
        12 15 6 3</rect></_>
    <_>
      <rect>
        12 29 5 1</rect></_>
    <_>
      <rect>
        12 32 4 1</rect></_>
    <_>
      <rect>
        13 6 4 1</rect></_>
    <_>
      <rect>
        13 10 5 6</rect></_>
    <_>
      <rect>
        13 27 9 2</rect></_>
    <_>
      <rect>
        14 0 8 4</rect></_>
    <_>
      <rect>
        14 6 2 1</rect></_>
    <_>
      <rect>
        14 23 3 1</rect></_>
    <_>
      <rect>
        14 26 4 1</rect></_>
    <_>
      <rect>
        15 13 7 3</rect></_>
    <_>
      <rect>
        15 22 6 4</rect></_>
    <_>
      <rect>
        15 31 2 1</rect></_>
    <_>
      <rect>
        15 33 4 1</rect></_>
    <_>
      <rect>
        16 14 4 1</rect></_>
    <_>
      <rect>
        16 31 8 2</rect></_>
    <_>
      <rect>
        17 24 3 1</rect></_>
    <_>
      <rect>
        17 31 2 1</rect></_>
    <_>
      <rect>
        18 6 6 2</rect></_>
    <_>
      <rect>
        18 7 7 3</rect></_>
    <_>
      <rect>
        18 22 7 4</rect></_>
    <_>
      <rect>
        18 33 5 1</rect></_>
    <_>
      <rect>
        19 7 7 9</rect></_>
    <_>
      <rect>
        19 9 7 6</rect></_>
    <_>
      <rect>
        19 26 4 2</rect></_>
    <_>
      <rect>
        19 33 7 1</rect></_>
    <_>
      <rect>
        20 9 5 2</rect></_>
    <_>
      <rect>
        20 28 3 1</rect></_>
    <_>
      <rect>
        22 7 6 11</rect></_>
    <_>
      <rect>
        22 26 3 3</rect></_>
    <_>
      <rect>
        22 26 6 4</rect></_>
    <_>
      <rect>
        22 31 1 1</rect></_>
    <_>
      <rect>
        23 4 5 3</rect></_>
    <_>
      <rect>
        23 31 1 1</rect></_>
    <_>
      <rect>
        23 32 3 1</rect></_>
    <_>
      <rect>
        25 5 4 2</rect></_>
    <_>
      <rect>
        25 6 5 3</rect></_>
    <_>
      <rect>
        25 7 5 2</rect></_>
    <_>
      <rect>
        25 7 5 6</rect></_>
    <_>
      <rect>
        25 28 5 3</rect></_>
    <_>
      <rect>
        27 7 4 3</rect></_>
    <_>
      <rect>
        28 7 2 2</rect></_>
    <_>
      <rect>
        28 7 4 4</rect></_>
    <_>
      <rect>
        28 22 4 6</rect></_>
    <_>
      <rect>
        28 25 4 3</rect></_>
    <_>
      <rect>
        28 25 4 4</rect></_>
    <_>
      <rect>
        31 9 3 4</rect></_>
    <_>
      <rect>
        31 12 3 9</rect></_>
    <_>
      <rect>
        31 16 3 5</rect></_>
    <_>
      <rect>
        31 18 3 4</rect></_>
    <_>
      <rect>
        31 24 3 3</rect></_>
    <_>
      <rect>
        31 28 3 3</rect></_>
    <_>
      <rect>
        31 30 3 1</rect></_>
    <_>
      <rect>
        33 31 2 2</rect></_>
    <_>
      <rect>
        34 11 2 7</rect></_>
    <_>
      <rect>
        34 18 2 3</rect></_>
    <_>
      <rect>
        34 27 2 2</rect></_></features></cascade>
</opencv_storage>
