<?xml version="1.0"?>
<opencv_storage>
<cascade>
  <stageType>BOOST</stageType>
  <featureType>LBP</featureType>
  <height>20</height>
  <width>20</width>
  <stageParams>
    <boostType>GAB</boostType>
    <minHitRate>9.9900001287460327e-01</minHitRate>
    <maxFalseAlarm>4.4999998807907104e-01</maxFalseAlarm>
    <weightTrimRate>9.4999999999999996e-01</weightTrimRate>
    <maxDepth>1</maxDepth>
    <maxWeakCount>100</maxWeakCount></stageParams>
  <featureParams>
    <maxCatCount>256</maxCatCount>
    <featSize>1</featSize></featureParams>
  <stageNum>15</stageNum>
  <stages>
    <!-- stage 0 -->
    <_>
      <maxWeakCount>5</maxWeakCount>
      <stageThreshold>-1.1013408899307251e+00</stageThreshold>
      <weakClassifiers>
        <_>
          <internalNodes>
            0 -1 83 -2295812 -149630640 -1719151624 -8400040 -455819792
            -6174672 -101065480 -1250864</internalNodes>
          <leafValues>
            -8.1693649291992188e-01 7.5375509262084961e-01</leafValues></_>
        <_>
          <internalNodes>
            0 -1 30 1574666239 -2817123 1529043455 -44576297 1227695871
            -4384629 1608219135 490672219</internalNodes>
          <leafValues>
            -7.7252858877182007e-01 6.2221199274063110e-01</leafValues></_>
        <_>
          <internalNodes>
            0 -1 38 -1 -33570821 -47617 -643 1064649197 -188993
            -536921089 -6859659</internalNodes>
          <leafValues>
            -4.9783852696418762e-01 7.0558536052703857e-01</leafValues></_>
        <_>
          <internalNodes>
            0 -1 125 -1086866689 146875542 -1250184193 148372126
            -1695110436 -1903432261 -494949377 146537694</internalNodes>
          <leafValues>
            -7.5258415937423706e-01 4.6951961517333984e-01</leafValues></_>
        <_>
          <internalNodes>
            0 -1 60 403706640 -587101424 994054645 1605578809 34376619
            -8093267 -1161254757 -1674575584</internalNodes>
          <leafValues>
            -6.7191958427429199e-01 5.3512305021286011e-01</leafValues></_></weakClassifiers></_>
    <!-- stage 1 -->
    <_>
      <maxWeakCount>5</maxWeakCount>
      <stageThreshold>-1.1507780551910400e+00</stageThreshold>
      <weakClassifiers>
        <_>
          <internalNodes>
            0 -1 29 -32769 -51201 -134218305 -24577 2141010175 -4256769
            -4243457 1039402068</internalNodes>
          <leafValues>
            -7.7900552749633789e-01 7.4788379669189453e-01</leafValues></_>
        <_>
          <internalNodes>
            0 -1 123 1073692639 1060962047 -8961 -1073746209 -1077936129
            -1342177537 -1076903937 682372602</internalNodes>
          <leafValues>
            -8.1455898284912109e-01 5.9823679924011230e-01</leafValues></_>
        <_>
          <internalNodes>
            0 -1 27 -536903681 -81921 -62081 2147450815 -1073905683
            -67158551 2147433471 2104825109</internalNodes>
          <leafValues>
            -7.9468560218811035e-01 5.5677348375320435e-01</leafValues></_>
        <_>
          <internalNodes>
            0 -1 113 -42696707 -68298763 -147730609 -33694883
            -1346833441 -170032196 -4326659 -47120656</internalNodes>
          <leafValues>
            -6.5534931421279907e-01 6.4378464221954346e-01</leafValues></_>
        <_>
          <internalNodes>
            0 -1 103 -1141000195 -103294051 -762519554 -1073741827
            -25569539 -4538497 -491588 754720244</internalNodes>
          <leafValues>
            -7.9919856786727905e-01 5.4136216640472412e-01</leafValues></_></weakClassifiers></_>
    <!-- stage 2 -->
    <_>
      <maxWeakCount>7</maxWeakCount>
      <stageThreshold>-9.7665405273437500e-01</stageThreshold>
      <weakClassifiers>
        <_>
          <internalNodes>
            0 -1 59 16847357 352387445 -651045379 1070856147 60821947
            339871929 1942707135 469715615</internalNodes>
          <leafValues>
            -7.1315789222717285e-01 6.8839287757873535e-01</leafValues></_>
        <_>
          <internalNodes>
            0 -1 25 -786462 -1174221042 2141863296 -83845360 -277742016
            -1303347903 -216535225 -80480509</internalNodes>
          <leafValues>
            -5.1495635509490967e-01 7.0351177453994751e-01</leafValues></_>
        <_>
          <internalNodes>
            0 -1 146 -76547105 -1440208884 -1078001745 715849636
            -1896943617 -1414775122 -1429098529 -1431308369</internalNodes>
          <leafValues>
            -4.3650135397911072e-01 7.4193811416625977e-01</leafValues></_>
        <_>
          <internalNodes>
            0 -1 13 -1069236058 -175971625 1914751496 -206314924
            335851776 -230518648 139711146 -143170633</internalNodes>
          <leafValues>
            -5.7996827363967896e-01 5.6691211462020874e-01</leafValues></_>
        <_>
          <internalNodes>
            0 -1 42 -208547177 -181142703 453712255 -6729377 1983915474
            -94240366 989995251 2138526515</internalNodes>
          <leafValues>
            -7.3590993881225586e-01 4.0959733724594116e-01</leafValues></_>
        <_>
          <internalNodes>
            0 -1 50 -70320146 -594572976 -1014480430 -70519930
            -1163413184 -1086324736 -812910678 -1648125816</internalNodes>
          <leafValues>
            -6.3334429264068604e-01 4.8652172088623047e-01</leafValues></_>
        <_>
          <internalNodes>
            0 -1 104 -1265831426 -804246512 1891701661 -1646292323
            -1198339144 -133651830 -1314457922 146579608</internalNodes>
          <leafValues>
            -7.9431623220443726e-01 3.7043762207031250e-01</leafValues></_></weakClassifiers></_>
    <!-- stage 3 -->
    <_>
      <maxWeakCount>7</maxWeakCount>
      <stageThreshold>-1.6266169548034668e+00</stageThreshold>
      <weakClassifiers>
        <_>
          <internalNodes>
            0 -1 45 534582621 -32777 -32769 -40961 2004161845 2146906487
            1811895807 2147448695</internalNodes>
          <leafValues>
            -6.2096774578094482e-01 6.4804965257644653e-01</leafValues></_>
        <_>
          <internalNodes>
            0 -1 19 -67109526 -335347934 -8987104 -502989054 -143393613
            -553616288 -9316527 -210242201</internalNodes>
          <leafValues>
            -4.3710449337959290e-01 6.6039323806762695e-01</leafValues></_>
        <_>
          <internalNodes>
            0 -1 69 152048861 -1610661889 -135397377 -98305 1037042879
            -1073741827 -1073791057 -99073</internalNodes>
          <leafValues>
            -4.8490801453590393e-01 5.8810347318649292e-01</leafValues></_>
        <_>
          <internalNodes>
            0 -1 132 -2097161 282784735 -2115170286 -1630013825
            -1213729793 818929807 -470814470 16764415</internalNodes>
          <leafValues>
            -6.6010159254074097e-01 4.2506620287895203e-01</leafValues></_>
        <_>
          <internalNodes>
            0 -1 117 -243803392 1951477825 570686420 809015335
            -730665745 -906721273 1643491966 -1871183873</internalNodes>
          <leafValues>
            -5.4032111167907715e-01 4.6467030048370361e-01</leafValues></_>
        <_>
          <internalNodes>
            0 -1 77 483686673 -545965607 2032197599 -4256292 862280639
            2147100924 990314431 957357104</internalNodes>
          <leafValues>
            -7.0261389017105103e-01 3.5862585902214050e-01</leafValues></_>
        <_>
          <internalNodes>
            0 -1 33 -222039870 -142108662 -2130067440 -129572352
            -134069760 -1992949760 -130649338 -11066617</internalNodes>
          <leafValues>
            -5.4711526632308960e-01 4.5028698444366455e-01</leafValues></_></weakClassifiers></_>
    <!-- stage 4 -->
    <_>
      <maxWeakCount>7</maxWeakCount>
      <stageThreshold>-9.7835028171539307e-01</stageThreshold>
      <weakClassifiers>
        <_>
          <internalNodes>
            0 -1 119 -4195848 -133639268 -650058468 -655038592 -75304312
            -526874584 -391582248 1354300664</internalNodes>
          <leafValues>
            -8.4156143665313721e-01 5.3285241127014160e-01</leafValues></_>
        <_>
          <internalNodes>
            0 -1 36 -619708417 -718059847 -788248325 2006177437
            1519082909 -340829127 1807178751 2147440479</internalNodes>
          <leafValues>
            -6.1667197942733765e-01 4.5860615372657776e-01</leafValues></_>
        <_>
          <internalNodes>
            0 -1 23 -1008732209 604164112 -1870593768 466660930
            1078280785 608240195 -1861009279 1601402743</internalNodes>
          <leafValues>
            -5.0578081607818604e-01 4.4450974464416504e-01</leafValues></_>
        <_>
          <internalNodes>
            0 -1 148 -639388449 -1467342449 -1372680609 -1433737554
            -1052673 -1358954497 -1057570 -268435713</internalNodes>
          <leafValues>
            -4.0619835257530212e-01 5.7130134105682373e-01</leafValues></_>
        <_>
          <internalNodes>
            0 -1 105 958389589 281268432 176410975 529877201 -394069027
            -1970305621 -1613112577 150983924</internalNodes>
          <leafValues>
            -6.5818351507186890e-01 3.6595690250396729e-01</leafValues></_>
        <_>
          <internalNodes>
            0 -1 13 -855719804 -170435633 114330832 -9365135 1140883844
            -62549867 33796350 -135012233</internalNodes>
          <leafValues>
            -5.7193624973297119e-01 4.0953063964843750e-01</leafValues></_>
        <_>
          <internalNodes>
            0 -1 115 -52430787 -246321063 -1989477251 1550963925
            -464875380 -1115527988 -1970665334 -930429285</internalNodes>
          <leafValues>
            -4.2021286487579346e-01 5.6523704528808594e-01</leafValues></_></weakClassifiers></_>
    <!-- stage 5 -->
    <_>
      <maxWeakCount>5</maxWeakCount>
      <stageThreshold>-1.4286653995513916e+00</stageThreshold>
      <weakClassifiers>
        <_>
          <internalNodes>
            0 -1 67 0 1073569207 1056776189 536821503 20840848 -131073
            716014844 -1431427523</internalNodes>
          <leafValues>
            -6.7960089445114136e-01 7.6882743835449219e-01</leafValues></_>
        <_>
          <internalNodes>
            0 -1 142 -790174036 5006436 -56295908 -1065841420
            -1675508667 -1941023672 -2075265840 -1064310529</internalNodes>
          <leafValues>
            -5.3027272224426270e-01 6.5409541130065918e-01</leafValues></_>
        <_>
          <internalNodes>
            0 -1 18 -95498460 -1727820544 -5586983 -167964 -697252464
            -1140355692 -410992757 -1088748030</internalNodes>
          <leafValues>
            -5.0351482629776001e-01 5.8051878213882446e-01</leafValues></_>
        <_>
          <internalNodes>
            0 -1 9 -863845408 -2147450880 16480 -1224601450 -972652384
            -1071609694 134217952 -1894563433</internalNodes>
          <leafValues>
            -6.4386934041976929e-01 4.5425835251808167e-01</leafValues></_>
        <_>
          <internalNodes>
            0 -1 95 -1291427364 -578158563 -2080357924 -716498936
            -2130140536 -1719303662 -1282758168 -1618081656</internalNodes>
          <leafValues>
            -5.1983594894409180e-01 5.3305554389953613e-01</leafValues></_></weakClassifiers></_>
    <!-- stage 6 -->
    <_>
      <maxWeakCount>9</maxWeakCount>
      <stageThreshold>-8.7926268577575684e-01</stageThreshold>
      <weakClassifiers>
        <_>
          <internalNodes>
            0 -1 28 -1089 -1 -1 -16418 2147433917 -49153 -1073926721
            2136936529</internalNodes>
          <leafValues>
            -5.3476822376251221e-01 5.5217027664184570e-01</leafValues></_>
        <_>
          <internalNodes>
            0 -1 142 -117443132 -2146406383 -792719308 71348964
            -536291260 203802632 -2144677708 -1058020097</internalNodes>
          <leafValues>
            -5.1353168487548828e-01 4.3751606345176697e-01</leafValues></_>
        <_>
          <internalNodes>
            0 -1 97 -800287660 -176878568 -1121889123 2105407488
            -390947652 -1097841544 -2105493318 -1743055714</internalNodes>
          <leafValues>
            -3.8457784056663513e-01 5.4133403301239014e-01</leafValues></_>
        <_>
          <internalNodes>
            0 -1 44 -138031664 1566544785 1428450080 2103047254
            -81264640 -360695625 -743959808 -4421</internalNodes>
          <leafValues>
            -4.5163729786872864e-01 4.2786848545074463e-01</leafValues></_>
        <_>
          <internalNodes>
            0 -1 63 -73531412 -161486318 -2071035328 -814882344
            706290881 -810581748 -1635573704 1006567434</internalNodes>
          <leafValues>
            -5.9147763252258301e-01 3.5319551825523376e-01</leafValues></_>
        <_>
          <internalNodes>
            0 -1 98 -1065483 923898900 -1717824129 487009759 1748022186
            946995340 943262126 833555967</internalNodes>
          <leafValues>
            -5.2414143085479736e-01 3.7795093655586243e-01</leafValues></_>
        <_>
          <internalNodes>
            0 -1 92 -91295276 -712866819 -787429413 -7216676 -266029672
            1000917720 -127599618 991965200</internalNodes>
          <leafValues>
            -7.1703261137008667e-01 3.0499094724655151e-01</leafValues></_>
        <_>
          <internalNodes>
            0 -1 94 -959383072 -786479715 -1551807587 -69658182
            -1716021802 -1177648716 -1292262485 -1954937470</internalNodes>
          <leafValues>
            -4.7039818763732910e-01 4.5183545351028442e-01</leafValues></_>
        <_>
          <internalNodes>
            0 -1 80 -1039993648 -102154912 802102941 1467857621
            -970421365 -1360066577 -851146086 -1882251762</internalNodes>
          <leafValues>
            -4.1174468398094177e-01 5.2438253164291382e-01</leafValues></_></weakClassifiers></_>
    <!-- stage 7 -->
    <_>
      <maxWeakCount>10</maxWeakCount>
      <stageThreshold>-9.4862657785415649e-01</stageThreshold>
      <weakClassifiers>
        <_>
          <internalNodes>
            0 -1 61 -20653876 -4273780 1123582428 -69348452 -322383176
            -1710571000 -628313114 -834602236</internalNodes>
          <leafValues>
            -7.0498913526535034e-01 5.2185899019241333e-01</leafValues></_>
        <_>
          <internalNodes>
            0 -1 126 -1215178785 974703349 -1191126561 982897787
            -248720909 -1158102848 -137825617 1072683483</internalNodes>
          <leafValues>
            -5.6334197521209717e-01 4.0349808335304260e-01</leafValues></_>
        <_>
          <internalNodes>
            0 -1 37 -77829 -65538 -32770 -34954 -13568013 -17647625
            -9065541 -10267309</internalNodes>
          <leafValues>
            -3.8767674565315247e-01 5.3614014387130737e-01</leafValues></_>
        <_>
          <internalNodes>
            0 -1 1 -224337168 -611306768 1534130111 -135593952 59769850
            -626552592 1090539262 -273465086</internalNodes>
          <leafValues>
            -4.1036787629127502e-01 4.9566003680229187e-01</leafValues></_>
        <_>
          <internalNodes>
            0 -1 144 -67108865 992622799 -268451857 -1141162053
            -822149121 -1163251777 -1904563478 -1143996545</internalNodes>
          <leafValues>
            -3.8825088739395142e-01 5.3877365589141846e-01</leafValues></_>
        <_>
          <internalNodes>
            0 -1 114 -791494651 -36602563 -1594663425 1576533086
            -262297411 -1157637492 -119762690 -662274034</internalNodes>
          <leafValues>
            -4.2424878478050232e-01 4.9311622977256775e-01</leafValues></_>
        <_>
          <internalNodes>
            0 -1 3 -524039437 -470168446 445772947 -1287324670
            -925639294 -1602158704 -991697533 -926684206</internalNodes>
          <leafValues>
            -3.8458839058876038e-01 5.5356198549270630e-01</leafValues></_>
        <_>
          <internalNodes>
            0 -1 89 -1692919664 865198365 -1783285803 830149397
            948541628 -203903547 -1475858501 1004144785</internalNodes>
          <leafValues>
            -5.3189849853515625e-01 3.9677268266677856e-01</leafValues></_>
        <_>
          <internalNodes>
            0 -1 17 -827666488 -40327532 -1000060016 -4980527 -248985216
            -100135933 -255098485 -11837391</internalNodes>
          <leafValues>
            -4.8536217212677002e-01 4.0582856535911560e-01</leafValues></_>
        <_>
          <internalNodes>
            0 -1 96 -132383403 2135448860 1561549311 957856961 -83705857
            -1165419556 2048040959 406334676</internalNodes>
          <leafValues>
            -6.0376942157745361e-01 3.0803108215332031e-01</leafValues></_></weakClassifiers></_>
    <!-- stage 8 -->
    <_>
      <maxWeakCount>12</maxWeakCount>
      <stageThreshold>-1.3477668762207031e+00</stageThreshold>
      <weakClassifiers>
        <_>
          <internalNodes>
            0 -1 43 -796199982 -135428712 -938389385 -41298465
            1512312884 -108789711 424895095 2138339159</internalNodes>
          <leafValues>
            -6.2895005941390991e-01 5.2141863107681274e-01</leafValues></_>
        <_>
          <internalNodes>
            0 -1 22 -643039270 -668287086 -1097793692 2080569031
            -227485519 -164537328 2146498258 -210241737</internalNodes>
          <leafValues>
            -3.9865782856941223e-01 4.5083740353584290e-01</leafValues></_>
        <_>
          <internalNodes>
            0 -1 134 -1621984809 76792903 -1845439139 274464533
            -683086913 79204459 -451347729 14677243</internalNodes>
          <leafValues>
            -7.0790475606918335e-01 3.0288484692573547e-01</leafValues></_>
        <_>
          <internalNodes>
            0 -1 109 1054161 -1102491393 1430902237 1066867469
            -124521537 -1164197105 -90721857 -5506053</internalNodes>
          <leafValues>
            -5.6294417381286621e-01 2.9855608940124512e-01</leafValues></_>
        <_>
          <internalNodes>
            0 -1 137 -32577874 -207407436 2228248 -798617594 -936431064
            573597609 1344797195 -70532533</internalNodes>
          <leafValues>
            -3.9869952201843262e-01 4.7297516465187073e-01</leafValues></_>
        <_>
          <internalNodes>
            0 -1 20 -389102870 -891517997 -1049590176 29368342
            -1195343704 154419344 2059911387 1981219351</internalNodes>
          <leafValues>
            -6.3623440265655518e-01 2.5191763043403625e-01</leafValues></_>
        <_>
          <internalNodes>
            0 -1 71 392443682 1243677061 1116742046 -1080065590
            1535398720 -1434464187 -341892438 797642760</internalNodes>
          <leafValues>
            -6.4364171028137207e-01 2.7580130100250244e-01</leafValues></_>
        <_>
          <internalNodes>
            0 -1 75 -661345828 -49255978 888937705 -36690127 -428694366
            -1885592464 -1105196646 -1081137989</internalNodes>
          <leafValues>
            -3.7034490704536438e-01 4.6221607923507690e-01</leafValues></_>
        <_>
          <internalNodes>
            0 -1 7 -140599145 -204369707 -796377740 798824989
            -1865154372 -213380732 -798276641 2004309063</internalNodes>
          <leafValues>
            -4.7117415070533752e-01 3.9433631300926208e-01</leafValues></_>
        <_>
          <internalNodes>
            0 -1 139 -591202258 -65559501 -194646978 -247235550
            1140865199 -1057974738 -1236159474 -800854006</internalNodes>
          <leafValues>
            -4.0425387024879456e-01 4.5081153512001038e-01</leafValues></_>
        <_>
          <internalNodes>
            0 -1 93 -2011684355 -792111979 -670035439 462441105
            -318722131 -267827037 1875807230 658122840</internalNodes>
          <leafValues>
            -4.8602595925331116e-01 3.8846522569656372e-01</leafValues></_>
        <_>
          <internalNodes>
            0 -1 127 -17042724 -162976438 137909359 -788342727
            -1744272818 -1844949982 -1839469362 -83109697</internalNodes>
          <leafValues>
            -3.2391002774238586e-01 6.1029124259948730e-01</leafValues></_></weakClassifiers></_>
    <!-- stage 9 -->
    <_>
      <maxWeakCount>14</maxWeakCount>
      <stageThreshold>-9.6928763389587402e-01</stageThreshold>
      <weakClassifiers>
        <_>
          <internalNodes>
            0 -1 86 1307704823 498822134 -1 469762047 2138930687
            968228855 -150994945 738197503</internalNodes>
          <leafValues>
            -3.4673979878425598e-01 5.8935534954071045e-01</leafValues></_>
        <_>
          <internalNodes>
            0 -1 40 -26257569 1610571639 -285245475 -71303313 -713228152
            -59919 1585190360 -34913</internalNodes>
          <leafValues>
            -3.5904699563980103e-01 5.1208621263504028e-01</leafValues></_>
        <_>
          <internalNodes>
            0 -1 143 -769 -858995484 -2 -119619859 -15799043 -2000355852
            -1938821892 -922747137</internalNodes>
          <leafValues>
            -3.3719629049301147e-01 4.9806371331214905e-01</leafValues></_>
        <_>
          <internalNodes>
            0 -1 6 -1068696082 -33758557 1173300520 -1747648143
            1082454217 -54639343 660919279 -145267069</internalNodes>
          <leafValues>
            -3.9304035902023315e-01 4.1799429059028625e-01</leafValues></_>
        <_>
          <internalNodes>
            0 -1 56 671091696 -2564738 -906712105 -1082288811 1577604400
            -1145107936 262944827 990923888</internalNodes>
          <leafValues>
            -6.4615309238433838e-01 2.2368329763412476e-01</leafValues></_>
        <_>
          <internalNodes>
            0 -1 116 -76286447 -1078919621 2083683866 1027211010
            -647002728 -1118637616 -657130306 -654579205</internalNodes>
          <leafValues>
            -3.4715917706489563e-01 4.6061041951179504e-01</leafValues></_>
        <_>
          <internalNodes>
            0 -1 133 -15075875 -1875823333 -280263815 -247991946
            -854721027 650844830 -1469842256 11271930</internalNodes>
          <leafValues>
            -5.6793940067291260e-01 2.8778412938117981e-01</leafValues></_>
        <_>
          <internalNodes>
            0 -1 66 1060721877 2147427263 -545824769 -39819 -1386277476
            -1090536009 -1077977601 -67117410</internalNodes>
          <leafValues>
            -3.4972512722015381e-01 4.6988964080810547e-01</leafValues></_>
        <_>
          <internalNodes>
            0 -1 128 -193550789 -182788807 406338811 -1744111445
            1778781004 -131384701 -93868610 -1265642177</internalNodes>
          <leafValues>
            -3.7351292371749878e-01 4.4984337687492371e-01</leafValues></_>
        <_>
          <internalNodes>
            0 -1 90 -699928 -144762886 -2129124437 2147385867 -754681040
            -1075141444 895690559 -1282734581</internalNodes>
          <leafValues>
            -4.1114625334739685e-01 4.2220690846443176e-01</leafValues></_>
        <_>
          <internalNodes>
            0 -1 2 -984112464 -950594475 740171254 1567963481
            -2134268775 -1719625582 -1449450885 1887117831</internalNodes>
          <leafValues>
            -5.1743936538696289e-01 3.5365626215934753e-01</leafValues></_>
        <_>
          <internalNodes>
            0 -1 73 102110524 -59051679 121586143 -545950643 -2036262176
            -337507720 -612331297 529027592</internalNodes>
          <leafValues>
            -5.3438764810562134e-01 3.0748307704925537e-01</leafValues></_>
        <_>
          <internalNodes>
            0 -1 16 -382994514 -1930367036 -278503831 1910529794
            -8585218 -1380778916 -587868465 -1337739933</internalNodes>
          <leafValues>
            -3.7210369110107422e-01 4.6889272332191467e-01</leafValues></_>
        <_>
          <internalNodes>
            0 -1 8 -247212878 -632192736 1778401361 1167151922
            -457256229 -1727479776 -1333300997 142854307</internalNodes>
          <leafValues>
            -4.2379292845726013e-01 3.8902607560157776e-01</leafValues></_></weakClassifiers></_>
    <!-- stage 10 -->
    <_>
      <maxWeakCount>13</maxWeakCount>
      <stageThreshold>-1.0763475894927979e+00</stageThreshold>
      <weakClassifiers>
        <_>
          <internalNodes>
            0 -1 87 268442973 1073553397 -655363 -32771 -1078186497
            -1147305985 -1 -86311172</internalNodes>
          <leafValues>
            -1.8809202313423157e-01 6.3891088962554932e-01</leafValues></_>
        <_>
          <internalNodes>
            0 -1 25 -4129 -1173368950 -1076708130 -83566666 -147685773
            -363332271 -82772025 -9175241</internalNodes>
          <leafValues>
            -3.1123808026313782e-01 5.2642869949340820e-01</leafValues></_>
        <_>
          <internalNodes>
            0 -1 4 -823433353 -1411217757 1744111521 -1209849839
            -2035418193 -1996854525 -1885011808 -341351741</internalNodes>
          <leafValues>
            -3.4098702669143677e-01 4.4309052824974060e-01</leafValues></_>
        <_>
          <internalNodes>
            0 -1 58 1602714710 2048481556 -754951713 1593825695
            1342376381 843203867 -140267521 278591194</internalNodes>
          <leafValues>
            -6.9592308998107910e-01 2.3094093799591064e-01</leafValues></_>
        <_>
          <internalNodes>
            0 -1 99 -950951920 -881345316 -818706660 -37974011
            -1215743004 -12903615 -1551293287 -14729150</internalNodes>
          <leafValues>
            -4.5504170656204224e-01 3.1826949119567871e-01</leafValues></_>
        <_>
          <internalNodes>
            0 -1 72 -1078325992 479468980 302009817 713884061
            -1241273870 -1835794383 482484223 573284683</internalNodes>
          <leafValues>
            -5.5839413404464722e-01 3.0056956410408020e-01</leafValues></_>
        <_>
          <internalNodes>
            0 -1 145 -62988092 5550228 1633304602 -1395204014 -266618232
            -2002222968 739738036 7331487</internalNodes>
          <leafValues>
            -7.1657615900039673e-01 2.1492449939250946e-01</leafValues></_>
        <_>
          <internalNodes>
            0 -1 106 -47694544 -1613688055 1239159100 -1123478719
            -1184325128 -1178949478 -1163855473 -1089854404</internalNodes>
          <leafValues>
            -4.9143993854522705e-01 3.0808487534523010e-01</leafValues></_>
        <_>
          <internalNodes>
            0 -1 124 -613383888 -44109537 -1659661727 -1189527523
            -72041551 -293547844 760066302 201851016</internalNodes>
          <leafValues>
            -7.6307499408721924e-01 2.0258186757564545e-01</leafValues></_>
        <_>
          <internalNodes>
            0 -1 34 -201589835 -746122455 -384758118 -78119341
            -125108088 -366852064 851970300 -34121906</internalNodes>
          <leafValues>
            -4.2691063880920410e-01 3.8780122995376587e-01</leafValues></_>
        <_>
          <internalNodes>
            0 -1 5 -966330394 -131927806 -1033843802 -806234221
            -1714357828 -394096503 1740800136 -276737849</internalNodes>
          <leafValues>
            -4.1731473803520203e-01 3.7830552458763123e-01</leafValues></_>
        <_>
          <internalNodes>
            0 -1 129 -538977058 -786488832 537296925 1418516551
            -1673263486 147722254 202218696 -699940117</internalNodes>
          <leafValues>
            -3.6095756292343140e-01 4.7251194715499878e-01</leafValues></_>
        <_>
          <internalNodes>
            0 -1 53 -965811230 -821636736 569447155 1326514690 289652971
            -938930026 1104499683 -817674749</internalNodes>
          <leafValues>
            -4.2728754878044128e-01 3.7343823909759521e-01</leafValues></_></weakClassifiers></_>
    <!-- stage 11 -->
    <_>
      <maxWeakCount>14</maxWeakCount>
      <stageThreshold>-1.5042580366134644e+00</stageThreshold>
      <weakClassifiers>
        <_>
          <internalNodes>
            0 -1 35 -4097 -75497674 -2210 -65550 -9250825 -1082761385
            -13125642 2004317523</internalNodes>
          <leafValues>
            -2.9001772403717041e-01 5.7836079597473145e-01</leafValues></_>
        <_>
          <internalNodes>
            0 -1 147 -1756648961 825272882 -1346437121 -1087586594
            -5263361 -1141981185 1068417023 -1073741857</internalNodes>
          <leafValues>
            -3.5278049111366272e-01 4.4679248332977295e-01</leafValues></_>
        <_>
          <internalNodes>
            0 -1 108 -1692943425 -543485149 490744603 -3410955
            -368772097 -1160737959 -1685029907 1039932660</internalNodes>
          <leafValues>
            -5.8762884140014648e-01 2.8530862927436829e-01</leafValues></_>
        <_>
          <internalNodes>
            0 -1 79 948974076 1973105823 956637147 958204568 448285181
            -1113966400 1730154143 707264512</internalNodes>
          <leafValues>
            -5.5234485864639282e-01 2.5349098443984985e-01</leafValues></_>
        <_>
          <internalNodes>
            0 -1 74 -657198644 1012111280 -1673080675 926885512
            -611852148 -1727315136 -1221917208 990513162</internalNodes>
          <leafValues>
            -4.9078235030174255e-01 2.7847546339035034e-01</leafValues></_>
        <_>
          <internalNodes>
            0 -1 12 -34679297 -362969069 -1042872352 -951796829
            -1953986321 -930971637 -513366830 2136163447</internalNodes>
          <leafValues>
            -3.9106264710426331e-01 3.5566264390945435e-01</leafValues></_>
        <_>
          <internalNodes>
            0 -1 88 1060842206 -116194156 1292122487 966701903
            -1282923011 -392421420 -1647367443 -1146410974</internalNodes>
          <leafValues>
            -4.6290323138237000e-01 3.2339113950729370e-01</leafValues></_>
        <_>
          <internalNodes>
            0 -1 64 -208936454 -184159224 1350416785 -146554670
            -1579163496 -857950048 1162999191 -716189566</internalNodes>
          <leafValues>
            -3.2815492153167725e-01 4.6791645884513855e-01</leafValues></_>
        <_>
          <internalNodes>
            0 -1 26 -823080970 -606813754 -1038050166 -542981408
            -711918412 -545832303 -1440354097 -278700013</internalNodes>
          <leafValues>
            -4.0384736657142639e-01 3.6201274394989014e-01</leafValues></_>
        <_>
          <internalNodes>
            0 -1 45 -652979341 2030141907 1887649111 -603852373
            1585650133 -1954348909 998770387 1827502003</internalNodes>
          <leafValues>
            -5.4442131519317627e-01 2.8798037767410278e-01</leafValues></_>
        <_>
          <internalNodes>
            0 -1 84 143719760 -597999244 41667029 -250539827 -802130697
            -224884035 713559765 -349433656</internalNodes>
          <leafValues>
            -4.9974226951599121e-01 2.8774720430374146e-01</leafValues></_>
        <_>
          <internalNodes>
            0 -1 118 -230704332 -721342192 302165328 1478514262
            -475289081 -22246912 1891907451 2814739</internalNodes>
          <leafValues>
            -5.7349675893783569e-01 2.6408547163009644e-01</leafValues></_>
        <_>
          <internalNodes>
            0 -1 62 -397376592 -1169117100 21775771 299850845
            -1906787656 -470001144 752127416 1332281345</internalNodes>
          <leafValues>
            -5.3662496805191040e-01 2.7380129694938660e-01</leafValues></_>
        <_>
          <internalNodes>
            0 -1 52 -666886664 -608300330 293618980 -1711787792
            -1115651152 -1710604783 50397886 -1419598970</internalNodes>
          <leafValues>
            -4.3193164467811584e-01 3.4785667061805725e-01</leafValues></_></weakClassifiers></_>
    <!-- stage 12 -->
    <_>
      <maxWeakCount>16</maxWeakCount>
      <stageThreshold>-1.3321131467819214e+00</stageThreshold>
      <weakClassifiers>
        <_>
          <internalNodes>
            0 -1 32 -4481 -81921 -34828 -537182251 2139088887
            -1140892164 2139051866 1985116019</internalNodes>
          <leafValues>
            -3.4475055336952209e-01 5.2888125181198120e-01</leafValues></_>
        <_>
          <internalNodes>
            0 -1 130 -257 -1258487811 -318898691 -251790081 -292
            -59179908 -587335556 -253757201</internalNodes>
          <leafValues>
            -3.0075529217720032e-01 4.5391753315925598e-01</leafValues></_>
        <_>
          <internalNodes>
            0 -1 110 176708063 -1214988289 2146942879 -1073922561
            -25772033 -1 -33554561 -70254869</internalNodes>
          <leafValues>
            -3.4385871887207031e-01 3.9830011129379272e-01</leafValues></_>
        <_>
          <internalNodes>
            0 -1 49 -9523224 1576807006 -1891118710 1832679690 696791400
            255861448 1803606987 2138399693</internalNodes>
          <leafValues>
            -5.0116515159606934e-01 2.6115497946739197e-01</leafValues></_>
        <_>
          <internalNodes>
            0 -1 55 -540082178 1351221506 -909832164 -77896883
            -1491332804 144310298 -1180741864 -76866934</internalNodes>
          <leafValues>
            -3.9939245581626892e-01 3.1076636910438538e-01</leafValues></_>
        <_>
          <internalNodes>
            0 -1 81 2132504368 789334553 52462398 -33005235 1128717220
            1745373377 2024303496 806419183</internalNodes>
          <leafValues>
            -6.5666270256042480e-01 1.8016296625137329e-01</leafValues></_>
        <_>
          <internalNodes>
            0 -1 101 -593209675 -185213443 -1476726849 -154019 -528145
            -1617576452 -554303521 -1148447992</internalNodes>
          <leafValues>
            -3.3876407146453857e-01 4.0854471921920776e-01</leafValues></_>
        <_>
          <internalNodes>
            0 -1 140 -58987448 -797789822 341299333 -261037822
            1074141216 -1979678706 -1733031637 2607127</internalNodes>
          <leafValues>
            -5.4812586307525635e-01 2.5521993637084961e-01</leafValues></_>
        <_>
          <internalNodes>
            0 -1 107 -93862544 274796692 -977235731 1997872317
            1434746880 2092452076 8522465 539220223</internalNodes>
          <leafValues>
            -6.0807275772094727e-01 2.0929194986820221e-01</leafValues></_>
        <_>
          <internalNodes>
            0 -1 76 -212115596 1931425235 848631773 2040952247
            -1089261427 -108050029 -269795445 1535727392</internalNodes>
          <leafValues>
            -4.9976021051406860e-01 2.7641382813453674e-01</leafValues></_>
        <_>
          <internalNodes>
            0 -1 11 1112204962 -603562604 598704016 -577539145 53790864
            -920196213 -874323580 -748555305</internalNodes>
          <leafValues>
            -5.1046997308731079e-01 2.9353541135787964e-01</leafValues></_>
        <_>
          <internalNodes>
            0 -1 31 316666859 -1203261298 1486759422 -1727624744
            -1956179774 -259839833 -339512104 -143431597</internalNodes>
          <leafValues>
            -3.8821163773536682e-01 3.9761924743652344e-01</leafValues></_>
        <_>
          <internalNodes>
            0 -1 47 -573510340 1772393151 1101571312 -102362092
            156035518 1821919947 -23797849 1424845900</internalNodes>
          <leafValues>
            -5.2217036485671997e-01 2.7900537848472595e-01</leafValues></_>
        <_>
          <internalNodes>
            0 -1 91 -40158958 -25352077 1605711259 -143388235 -302112840
            524107618 234281904 -1073777229</internalNodes>
          <leafValues>
            -3.1232100725173950e-01 4.6207457780838013e-01</leafValues></_>
        <_>
          <internalNodes>
            0 -1 65 -3177542 -744024390 62279569 1948546433 289571018
            141954952 1129436336 -774899725</internalNodes>
          <leafValues>
            -3.4330677986145020e-01 4.4385322928428650e-01</leafValues></_>
        <_>
          <internalNodes>
            0 -1 15 -993087758 -2132775998 -1377336240 2102765321
            -1644839182 -1258445728 -1848187199 -1060911933</internalNodes>
          <leafValues>
            -3.5912787914276123e-01 4.0232452750205994e-01</leafValues></_></weakClassifiers></_>
    <!-- stage 13 -->
    <_>
      <maxWeakCount>16</maxWeakCount>
      <stageThreshold>-7.2733616828918457e-01</stageThreshold>
      <weakClassifiers>
        <_>
          <internalNodes>
            0 -1 135 -2134902529 -1550262307 -1048577 -1241645057
            -1342178561 788070398 -1073745921 201326335</internalNodes>
          <leafValues>
            -2.3724061250686646e-01 5.7457906007766724e-01</leafValues></_>
        <_>
          <internalNodes>
            0 -1 39 2147385335 -2 -1 -131089 2104817655 -5834763
            1869838330 -814260393</internalNodes>
          <leafValues>
            -2.9488000273704529e-01 4.2924466729164124e-01</leafValues></_>
        <_>
          <internalNodes>
            0 -1 41 -104342789 -585121251 -1071277345 -615672993
            1365839172 923354481 1899479255 1734833783</internalNodes>
          <leafValues>
            -6.0240274667739868e-01 2.1118071675300598e-01</leafValues></_>
        <_>
          <internalNodes>
            0 -1 120 -1142687232 -785316779 859984658 -254665001
            -19689765 -89965918 -1253611465 550492987</internalNodes>
          <leafValues>
            -4.8540583252906799e-01 2.4652607738971710e-01</leafValues></_>
        <_>
          <internalNodes>
            0 -1 78 533812725 1440051260 1495684605 1540470143
            1027939825 1570971864 931994187 1069487707</internalNodes>
          <leafValues>
            -6.3124066591262817e-01 1.9946463406085968e-01</leafValues></_>
        <_>
          <internalNodes>
            0 -1 122 -595553284 -1310862918 1972507006 -1928308644
            -1110965832 -1175977256 454101178 -1089793062</internalNodes>
          <leafValues>
            -3.7883558869361877e-01 3.3837151527404785e-01</leafValues></_>
        <_>
          <internalNodes>
            0 -1 46 -905914382 -139238831 -283519105 -38321956
            -410390824 -355025218 -1424971842 -577814126</internalNodes>
          <leafValues>
            -3.4779104590415955e-01 4.1146963834762573e-01</leafValues></_>
        <_>
          <internalNodes>
            0 -1 14 -890354326 1505420700 -661182218 -250538891
            343716203 -785055120 -444295440 -782802458</internalNodes>
          <leafValues>
            -4.8149061203002930e-01 2.7347341179847717e-01</leafValues></_>
        <_>
          <internalNodes>
            0 -1 0 -926944141 -211552604 438435256 1474559907 1289746387
            -52375659 -857355101 -454563901</internalNodes>
          <leafValues>
            -2.5784128904342651e-01 5.2215003967285156e-01</leafValues></_>
        <_>
          <internalNodes>
            0 -1 112 1624440908 -536968481 -1463157233 -11457864
            -402070049 -84195012 -560139045 -665037824</internalNodes>
          <leafValues>
            -4.3876668810844421e-01 3.0875948071479797e-01</leafValues></_>
        <_>
          <internalNodes>
            0 -1 141 -570425697 -538050564 -1073959699 -1074988116
            217861244 -50332556 -1730151068 -857867041</internalNodes>
          <leafValues>
            -3.4321570396423340e-01 3.9996272325515747e-01</leafValues></_>
        <_>
          <internalNodes>
            0 -1 10 -226824194 2112942073 2136964986 -216679444
            -1325074600 -1561038483 -716233077 -33983697</internalNodes>
          <leafValues>
            -3.4161359071731567e-01 4.1086679697036743e-01</leafValues></_>
        <_>
          <internalNodes>
            0 -1 54 -439979104 -1914459264 566555248 -571758651
            -816924502 -2143172092 365138112 -787828538</internalNodes>
          <leafValues>
            -3.8388723134994507e-01 3.6120489239692688e-01</leafValues></_>
        <_>
          <internalNodes>
            0 -1 57 -269348446 1470432211 163651124 2141796354 243601358
            -1143534987 2078948264 1808540680</internalNodes>
          <leafValues>
            -6.6374331712722778e-01 2.0586548745632172e-01</leafValues></_>
        <_>
          <internalNodes>
            0 -1 85 1224772764 -550440491 2033189976 -1357791027
            -1710219875 1494311809 136316200 176440644</internalNodes>
          <leafValues>
            -6.0631006956100464e-01 2.3347039520740509e-01</leafValues></_>
        <_>
          <internalNodes>
            0 -1 24 -858862906 -593044038 -827486479 -656969030
            1416890266 -665731984 1919961023 -173595790</internalNodes>
          <leafValues>
            -3.6531940102577209e-01 3.8939824700355530e-01</leafValues></_></weakClassifiers></_>
    <!-- stage 14 -->
    <_>
      <maxWeakCount>15</maxWeakCount>
      <stageThreshold>-1.1737902164459229e+00</stageThreshold>
      <weakClassifiers>
        <_>
          <internalNodes>
            0 -1 132 -32769 520093695 -2 -1119879426 -37748738
            -1157660675 -268436484 16631004</internalNodes>
          <leafValues>
            -4.0816327929496765e-01 4.9573343992233276e-01</leafValues></_>
        <_>
          <internalNodes>
            0 -1 68 135681109 -1215049255 -1247866657 -107137011
            -1079044099 -96032615 965688285 -1631915542</internalNodes>
          <leafValues>
            -3.8868322968482971e-01 3.2886675000190735e-01</leafValues></_>
        <_>
          <internalNodes>
            0 -1 21 -222110497 -581532722 -2066825102 -70084928
            -2000649740 -1964703548 -830157841 -538765</internalNodes>
          <leafValues>
            -3.5837003588676453e-01 3.5299110412597656e-01</leafValues></_>
        <_>
          <internalNodes>
            0 -1 51 -254558838 2130363154 -223030870 1811584266
            1525186800 -1714200222 2043120320 185271561</internalNodes>
          <leafValues>
            -5.3966397047042847e-01 2.2542423009872437e-01</leafValues></_>
        <_>
          <internalNodes>
            0 -1 138 -543181816 812135812 167773368 273817622 385916561
            269292609 940073358 1533006975</internalNodes>
          <leafValues>
            -4.7997838258743286e-01 2.6895052194595337e-01</leafValues></_>
        <_>
          <internalNodes>
            0 -1 102 -466037392 -925061071 972856761 -1648830079
            1108089396 -84407024 724110399 -1105044550</internalNodes>
          <leafValues>
            -3.8468348979949951e-01 3.1415441632270813e-01</leafValues></_>
        <_>
          <internalNodes>
            0 -1 48 -1959606814 -1813393256 1210061648 -982264456
            -358954789 -1944057792 136151260 -453933928</internalNodes>
          <leafValues>
            -4.7303962707519531e-01 2.6369491219520569e-01</leafValues></_>
        <_>
          <internalNodes>
            0 -1 82 -170203780 -1162199864 1350326527 -1659926484
            44481988 -14694606 -105644227 -540327098</internalNodes>
          <leafValues>
            -3.6033803224563599e-01 3.7851738929748535e-01</leafValues></_>
        <_>
          <internalNodes>
            0 -1 111 976385661 1003763455 288579451 965957791 775875311
            814093013 787239623 713034494</internalNodes>
          <leafValues>
            -6.2390738725662231e-01 2.1510154008865356e-01</leafValues></_>
        <_>
          <internalNodes>
            0 -1 137 -79766366 -214238543 540541980 284266658 -396140024
            674420128 2037767147 -84680117</internalNodes>
          <leafValues>
            -3.6060309410095215e-01 3.7488159537315369e-01</leafValues></_>
        <_>
          <internalNodes>
            0 -1 70 1487977152 1432196369 969995119 1470985095
            -1446735713 2044496556 -897471798 -935329264</internalNodes>
          <leafValues>
            -4.8501622676849365e-01 2.8380054235458374e-01</leafValues></_>
        <_>
          <internalNodes>
            0 -1 100 2138476036 -1172823772 -1930852652 -1256133204
            -1578509453 1023510769 -1965506072 284422483</internalNodes>
          <leafValues>
            -5.9325176477432251e-01 1.9475428760051727e-01</leafValues></_>
        <_>
          <internalNodes>
            0 -1 121 -1188458155 988840448 615220733 -1630301033
            -1425884498 -94680375 1770263804 -1612693312</internalNodes>
          <leafValues>
            -3.7163454294204712e-01 3.5794013738632202e-01</leafValues></_>
        <_>
          <internalNodes>
            0 -1 131 2019556732 1421394101 161845493 -1850106819
            -225445339 -1934980608 -888689044 14940315</internalNodes>
          <leafValues>
            -4.9187570810317993e-01 2.8130254149436951e-01</leafValues></_>
        <_>
          <internalNodes>
            0 -1 136 -724909438 -123041266 843076416 1953905430
            -2132376374 878131217 725653754 -257955271</internalNodes>
          <leafValues>
            -3.8016015291213989e-01 3.7466526031494141e-01</leafValues></_></weakClassifiers></_></stages>
  <features>
    <_>
      <rect>
        0 2 1 4</rect></_>
    <_>
      <rect>
        0 2 5 1</rect></_>
    <_>
      <rect>
        0 2 6 2</rect></_>
    <_>
      <rect>
        0 3 1 3</rect></_>
    <_>
      <rect>
        0 3 2 2</rect></_>
    <_>
      <rect>
        0 3 2 3</rect></_>
    <_>
      <rect>
        0 3 4 1</rect></_>
    <_>
      <rect>
        0 3 6 2</rect></_>
    <_>
      <rect>
        0 4 1 2</rect></_>
    <_>
      <rect>
        0 4 2 2</rect></_>
    <_>
      <rect>
        0 4 3 2</rect></_>
    <_>
      <rect>
        0 4 3 3</rect></_>
    <_>
      <rect>
        0 4 3 5</rect></_>
    <_>
      <rect>
        0 5 3 2</rect></_>
    <_>
      <rect>
        0 5 4 2</rect></_>
    <_>
      <rect>
        0 6 1 2</rect></_>
    <_>
      <rect>
        0 6 1 3</rect></_>
    <_>
      <rect>
        0 6 4 1</rect></_>
    <_>
      <rect>
        0 6 6 2</rect></_>
    <_>
      <rect>
        0 7 1 3</rect></_>
    <_>
      <rect>
        0 7 2 2</rect></_>
    <_>
      <rect>
        0 8 2 3</rect></_>
    <_>
      <rect>
        0 9 1 2</rect></_>
    <_>
      <rect>
        0 9 1 3</rect></_>
    <_>
      <rect>
        0 10 1 1</rect></_>
    <_>
      <rect>
        0 10 1 2</rect></_>
    <_>
      <rect>
        0 11 2 1</rect></_>
    <_>
      <rect>
        0 11 2 3</rect></_>
    <_>
      <rect>
        0 11 3 3</rect></_>
    <_>
      <rect>
        0 11 5 3</rect></_>
    <_>
      <rect>
        0 11 6 3</rect></_>
    <_>
      <rect>
        0 12 1 1</rect></_>
    <_>
      <rect>
        0 12 2 2</rect></_>
    <_>
      <rect>
        0 13 1 1</rect></_>
    <_>
      <rect>
        0 13 1 2</rect></_>
    <_>
      <rect>
        0 13 2 1</rect></_>
    <_>
      <rect>
        0 13 2 2</rect></_>
    <_>
      <rect>
        0 13 3 1</rect></_>
    <_>
      <rect>
        0 13 3 2</rect></_>
    <_>
      <rect>
        0 13 4 1</rect></_>
    <_>
      <rect>
        0 14 1 2</rect></_>
    <_>
      <rect>
        0 14 2 1</rect></_>
    <_>
      <rect>
        0 14 3 1</rect></_>
    <_>
      <rect>
        0 14 4 1</rect></_>
    <_>
      <rect>
        0 15 1 1</rect></_>
    <_>
      <rect>
        0 15 3 1</rect></_>
    <_>
      <rect>
        1 2 3 1</rect></_>
    <_>
      <rect>
        1 2 4 3</rect></_>
    <_>
      <rect>
        1 3 1 3</rect></_>
    <_>
      <rect>
        1 3 3 2</rect></_>
    <_>
      <rect>
        1 6 6 3</rect></_>
    <_>
      <rect>
        1 8 6 1</rect></_>
    <_>
      <rect>
        1 10 1 1</rect></_>
    <_>
      <rect>
        2 3 2 1</rect></_>
    <_>
      <rect>
        2 4 1 1</rect></_>
    <_>
      <rect>
        2 4 5 5</rect></_>
    <_>
      <rect>
        2 6 4 1</rect></_>
    <_>
      <rect>
        2 14 2 1</rect></_>
    <_>
      <rect>
        2 14 6 1</rect></_>
    <_>
      <rect>
        2 15 6 1</rect></_>
    <_>
      <rect>
        3 0 4 2</rect></_>
    <_>
      <rect>
        3 1 5 5</rect></_>
    <_>
      <rect>
        3 2 4 1</rect></_>
    <_>
      <rect>
        3 2 5 6</rect></_>
    <_>
      <rect>
        3 3 1 1</rect></_>
    <_>
      <rect>
        3 4 1 1</rect></_>
    <_>
      <rect>
        3 15 3 1</rect></_>
    <_>
      <rect>
        3 16 2 1</rect></_>
    <_>
      <rect>
        3 16 3 1</rect></_>
    <_>
      <rect>
        3 16 4 1</rect></_>
    <_>
      <rect>
        4 1 3 2</rect></_>
    <_>
      <rect>
        4 5 4 3</rect></_>
    <_>
      <rect>
        4 5 5 1</rect></_>
    <_>
      <rect>
        4 7 4 1</rect></_>
    <_>
      <rect>
        4 8 5 1</rect></_>
    <_>
      <rect>
        4 10 2 1</rect></_>
    <_>
      <rect>
        4 14 2 1</rect></_>
    <_>
      <rect>
        4 14 4 1</rect></_>
    <_>
      <rect>
        4 15 3 1</rect></_>
    <_>
      <rect>
        5 1 3 1</rect></_>
    <_>
      <rect>
        5 3 3 1</rect></_>
    <_>
      <rect>
        5 3 5 3</rect></_>
    <_>
      <rect>
        5 4 3 1</rect></_>
    <_>
      <rect>
        5 5 4 4</rect></_>
    <_>
      <rect>
        5 7 2 1</rect></_>
    <_>
      <rect>
        5 10 4 1</rect></_>
    <_>
      <rect>
        5 15 5 1</rect></_>
    <_>
      <rect>
        5 16 4 1</rect></_>
    <_>
      <rect>
        6 3 3 2</rect></_>
    <_>
      <rect>
        6 6 4 1</rect></_>
    <_>
      <rect>
        6 8 3 1</rect></_>
    <_>
      <rect>
        6 9 3 1</rect></_>
    <_>
      <rect>
        6 13 2 1</rect></_>
    <_>
      <rect>
        7 6 3 1</rect></_>
    <_>
      <rect>
        7 8 2 1</rect></_>
    <_>
      <rect>
        7 12 2 1</rect></_>
    <_>
      <rect>
        7 14 3 1</rect></_>
    <_>
      <rect>
        8 2 4 1</rect></_>
    <_>
      <rect>
        8 3 4 2</rect></_>
    <_>
      <rect>
        8 4 2 1</rect></_>
    <_>
      <rect>
        8 4 4 3</rect></_>
    <_>
      <rect>
        8 7 2 1</rect></_>
    <_>
      <rect>
        8 9 3 1</rect></_>
    <_>
      <rect>
        8 11 3 2</rect></_>
    <_>
      <rect>
        8 13 4 1</rect></_>
    <_>
      <rect>
        8 14 4 1</rect></_>
    <_>
      <rect>
        9 2 2 1</rect></_>
    <_>
      <rect>
        9 3 3 1</rect></_>
    <_>
      <rect>
        9 11 3 2</rect></_>
    <_>
      <rect>
        9 16 2 1</rect></_>
    <_>
      <rect>
        9 16 3 1</rect></_>
    <_>
      <rect>
        10 14 2 1</rect></_>
    <_>
      <rect>
        11 0 3 2</rect></_>
    <_>
      <rect>
        11 1 2 5</rect></_>
    <_>
      <rect>
        11 1 3 2</rect></_>
    <_>
      <rect>
        11 3 3 1</rect></_>
    <_>
      <rect>
        11 3 3 3</rect></_>
    <_>
      <rect>
        11 4 3 3</rect></_>
    <_>
      <rect>
        11 5 3 3</rect></_>
    <_>
      <rect>
        11 5 3 4</rect></_>
    <_>
      <rect>
        11 6 3 2</rect></_>
    <_>
      <rect>
        11 7 2 1</rect></_>
    <_>
      <rect>
        11 10 1 1</rect></_>
    <_>
      <rect>
        11 11 3 3</rect></_>
    <_>
      <rect>
        11 13 2 1</rect></_>
    <_>
      <rect>
        11 14 3 1</rect></_>
    <_>
      <rect>
        11 15 3 1</rect></_>
    <_>
      <rect>
        14 3 1 1</rect></_>
    <_>
      <rect>
        14 3 2 2</rect></_>
    <_>
      <rect>
        14 4 1 1</rect></_>
    <_>
      <rect>
        14 7 2 3</rect></_>
    <_>
      <rect>
        14 11 2 1</rect></_>
    <_>
      <rect>
        14 12 2 2</rect></_>
    <_>
      <rect>
        14 13 2 1</rect></_>
    <_>
      <rect>
        14 14 2 1</rect></_>
    <_>
      <rect>
        14 15 2 1</rect></_>
    <_>
      <rect>
        15 3 1 1</rect></_>
    <_>
      <rect>
        15 4 1 1</rect></_>
    <_>
      <rect>
        15 5 1 1</rect></_>
    <_>
      <rect>
        17 2 1 3</rect></_>
    <_>
      <rect>
        17 6 1 2</rect></_>
    <_>
      <rect>
        17 7 1 3</rect></_>
    <_>
      <rect>
        17 9 1 2</rect></_>
    <_>
      <rect>
        17 10 1 2</rect></_>
    <_>
      <rect>
        17 11 1 3</rect></_>
    <_>
      <rect>
        17 13 1 1</rect></_>
    <_>
      <rect>
        17 13 1 2</rect></_>
    <_>
      <rect>
        17 14 1 2</rect></_>
    <_>
      <rect>
        17 15 1 1</rect></_></features></cascade>
</opencv_storage>
