<?xml version="1.0"?>
<opencv_storage>
<cascade>
  <stageType>BOOST</stageType>
  <featureType>LBP</featureType>
  <height>40</height>
  <width>40</width>
  <stageParams>
    <boostType>GAB</boostType>
    <minHitRate>9.9900001287460327e-01</minHitRate>
    <maxFalseAlarm>5.0000000000000000e-01</maxFalseAlarm>
    <weightTrimRate>9.4999999999999996e-01</weightTrimRate>
    <maxDepth>1</maxDepth>
    <maxWeakCount>100</maxWeakCount></stageParams>
  <featureParams>
    <maxCatCount>256</maxCatCount>
    <featSize>1</featSize></featureParams>
  <stageNum>20</stageNum>
  <stages>
    <!-- stage 0 -->
    <_>
      <maxWeakCount>3</maxWeakCount>
      <stageThreshold>-9.2394846677780151e-01</stageThreshold>
      <weakClassifiers>
        <_>
          <internalNodes>
            0 -1 20 -1827143681 -4763399 -1325001829 -11173753
            1879047819 -1694366833 2143832507 1064501799</internalNodes>
          <leafValues>
            -8.4821426868438721e-01 9.4782036542892456e-01</leafValues></_>
        <_>
          <internalNodes>
            0 -1 24 -682264801 -571251261 -1860611617 -112733945
            286478357 1252089099 2015693131 1936152343</internalNodes>
          <leafValues>
            -8.7195563316345215e-01 8.4924644231796265e-01</leafValues></_>
        <_>
          <internalNodes>
            0 -1 94 -610811393 -1131310893 -251141865 -1784983145
            -1694133269 -1149205879 -1447001089 721075903</internalNodes>
          <leafValues>
            -8.3528447151184082e-01 7.9622143507003784e-01</leafValues></_></weakClassifiers></_>
    <!-- stage 1 -->
    <_>
      <maxWeakCount>4</maxWeakCount>
      <stageThreshold>-1.4631916284561157e+00</stageThreshold>
      <weakClassifiers>
        <_>
          <internalNodes>
            0 -1 30 -67371009 -1 -2130568193 -1073758209 -1 -1075238913
            -536870981 359862783</internalNodes>
          <leafValues>
            -8.2809919118881226e-01 9.0500807762145996e-01</leafValues></_>
        <_>
          <internalNodes>
            0 -1 101 1574696447 173773167 -1320578809 1071190491
            -368324353 965446287 -401360646 149789375</internalNodes>
          <leafValues>
            -7.6093727350234985e-01 7.9172468185424805e-01</leafValues></_>
        <_>
          <internalNodes>
            0 -1 73 -1482695809 -145229737 -748894401 -14695019
            231337915 -71651215 -1421219333 997791828</internalNodes>
          <leafValues>
            -8.5978692770004272e-01 7.0644301176071167e-01</leafValues></_>
        <_>
          <internalNodes>
            0 -1 25 -686571105 -581629477 50434335 1934037385
            -2088624041 562302976 -2137830869 -2920349</internalNodes>
          <leafValues>
            -7.4747556447982788e-01 7.4073296785354614e-01</leafValues></_></weakClassifiers></_>
    <!-- stage 2 -->
    <_>
      <maxWeakCount>4</maxWeakCount>
      <stageThreshold>-4.2197894304990768e-02</stageThreshold>
      <weakClassifiers>
        <_>
          <internalNodes>
            0 -1 93 -782803457 -1651932735 -1073758209 -1140850689 -1
            -1078002679 -1342193665 683327227</internalNodes>
          <leafValues>
            -7.3262029886245728e-01 8.6365085840225220e-01</leafValues></_>
        <_>
          <internalNodes>
            0 -1 19 -790954019 -654083817 -2147166197 -782811117
            954356205 -896907263 1552095935 2004833143</internalNodes>
          <leafValues>
            -7.5450313091278076e-01 7.5678771734237671e-01</leafValues></_>
        <_>
          <internalNodes>
            0 -1 43 -197796897 -717369187 -2101132835 -585952395
            -1067742545 -108787539 1494137259 -352264432</internalNodes>
          <leafValues>
            -7.1505016088485718e-01 7.2025412321090698e-01</leafValues></_>
        <_>
          <internalNodes>
            0 -1 41 1371837124 -544193572 -922660531 1465500761
            -1476296209 -7696309 194546060 -11710392</internalNodes>
          <leafValues>
            -7.4865669012069702e-01 7.2467142343521118e-01</leafValues></_></weakClassifiers></_>
    <!-- stage 3 -->
    <_>
      <maxWeakCount>4</maxWeakCount>
      <stageThreshold>-2.9114514589309692e-01</stageThreshold>
      <weakClassifiers>
        <_>
          <internalNodes>
            0 -1 26 -782271529 -741239601 1358973403 -644377801
            1979863923 1934632275 1259816035 1937208883</internalNodes>
          <leafValues>
            -9.2000001668930054e-01 8.2167941331863403e-01</leafValues></_>
        <_>
          <internalNodes>
            0 -1 83 431428607 465401847 2130671607 -573441 1073428191
            -1711327267 1064802271 2143287295</internalNodes>
          <leafValues>
            -5.4819416999816895e-01 7.8832858800888062e-01</leafValues></_>
        <_>
          <internalNodes>
            0 -1 107 -750005761 1346990087 -1727853807 1365079303
            1677370367 1410305417 -387714068 7073984</internalNodes>
          <leafValues>
            -7.9086804389953613e-01 6.0337305068969727e-01</leafValues></_>
        <_>
          <internalNodes>
            0 -1 35 -346373900 1398390801 -1023340195 1972371712
            -1072561220 -645332981 -1465381891 -1950351231</internalNodes>
          <leafValues>
            -7.5164777040481567e-01 5.7367593050003052e-01</leafValues></_></weakClassifiers></_>
    <!-- stage 4 -->
    <_>
      <maxWeakCount>4</maxWeakCount>
      <stageThreshold>-3.5503455996513367e-01</stageThreshold>
      <weakClassifiers>
        <_>
          <internalNodes>
            0 -1 8 -5975952 -678976958 151552258 -115877632 -913652854
            -1739947890 -485570166 1498705684</internalNodes>
          <leafValues>
            -8.3896106481552124e-01 7.9125189781188965e-01</leafValues></_>
        <_>
          <internalNodes>
            0 -1 58 -518596515 -1218903488 -788410171 1027720147
            -759115277 -1123950580 -360594199 1003475935</internalNodes>
          <leafValues>
            -7.0581030845642090e-01 6.8014544248580933e-01</leafValues></_>
        <_>
          <internalNodes>
            0 -1 4 -939335200 -1543356288 268763520 -683196399
            -1033252120 -939360256 176689672 -6821593</internalNodes>
          <leafValues>
            -6.4231503009796143e-01 6.3198602199554443e-01</leafValues></_>
        <_>
          <internalNodes>
            0 -1 14 -671951722 -765795849 8421984 -1047478192
            -2126458652 -636450749 -1073700782 -704130077</internalNodes>
          <leafValues>
            -7.3452025651931763e-01 5.5775082111358643e-01</leafValues></_></weakClassifiers></_>
    <!-- stage 5 -->
    <_>
      <maxWeakCount>6</maxWeakCount>
      <stageThreshold>-9.7816133499145508e-01</stageThreshold>
      <weakClassifiers>
        <_>
          <internalNodes>
            0 -1 81 285218129 1060650456 -1075314849 536821759 509949439
            -1935851521 1606369279 2078244861</internalNodes>
          <leafValues>
            -4.1052630543708801e-01 8.4777593612670898e-01</leafValues></_>
        <_>
          <internalNodes>
            0 -1 22 -41029 2147474815 -1 -32771 -43531 -588167 -40961
            -41161</internalNodes>
          <leafValues>
            -4.6836850047111511e-01 7.5167304277420044e-01</leafValues></_>
        <_>
          <internalNodes>
            0 -1 71 1532236564 -74251312 -1852767809 1573094660
            -401019905 -1163689815 -1207430546 -1155503828</internalNodes>
          <leafValues>
            -6.7589050531387329e-01 6.0976970195770264e-01</leafValues></_>
        <_>
          <internalNodes>
            0 -1 70 -239210790 -988577726 1627996160 -591953886
            -1039611750 -922123958 -1798453394 -2514262</internalNodes>
          <leafValues>
            -7.0507788658142090e-01 5.4268056154251099e-01</leafValues></_>
        <_>
          <internalNodes>
            0 -1 104 -265047792 -553524729 1142169601 939557953
            1157728297 -8314109 -1205633016 -655381293</internalNodes>
          <leafValues>
            -6.3784605264663696e-01 5.9545975923538208e-01</leafValues></_>
        <_>
          <internalNodes>
            0 -1 15 -1079247073 -613732565 2143223799 -80568570
            -11026655 -11292923 -9175261 -277663977</internalNodes>
          <leafValues>
            -5.9941804409027100e-01 6.7907088994979858e-01</leafValues></_></weakClassifiers></_>
    <!-- stage 6 -->
    <_>
      <maxWeakCount>5</maxWeakCount>
      <stageThreshold>-7.2971171140670776e-01</stageThreshold>
      <weakClassifiers>
        <_>
          <internalNodes>
            0 -1 33 863926271 1073741823 -134219777 -16777217 2138529791
            327122943 -8421505 2013265919</internalNodes>
          <leafValues>
            -6.7117118835449219e-01 7.9791152477264404e-01</leafValues></_>
        <_>
          <internalNodes>
            0 -1 31 -539525251 2139045847 -16513 2139037567 -536980155
            -32809 -55304 -32769</internalNodes>
          <leafValues>
            -5.3836500644683838e-01 6.5808838605880737e-01</leafValues></_>
        <_>
          <internalNodes>
            0 -1 74 -804392014 8454147 1146882 -208715386 -2012100086
            -1978957823 1614924362 -2250070</internalNodes>
          <leafValues>
            -6.7728489637374878e-01 5.4243892431259155e-01</leafValues></_>
        <_>
          <internalNodes>
            0 -1 87 -16007680 2074116096 1141048983 -71208701
            -1744664528 -366902272 570460584 -1067206193</internalNodes>
          <leafValues>
            -6.7690581083297729e-01 5.2291816473007202e-01</leafValues></_>
        <_>
          <internalNodes>
            0 -1 116 -587206913 -1964053320 -1091715091 -1996492849
            2112659149 -856750451 -856374135 -993001493</internalNodes>
          <leafValues>
            -5.8553260564804077e-01 6.1668926477432251e-01</leafValues></_></weakClassifiers></_>
    <!-- stage 7 -->
    <_>
      <maxWeakCount>7</maxWeakCount>
      <stageThreshold>-7.9622000455856323e-01</stageThreshold>
      <weakClassifiers>
        <_>
          <internalNodes>
            0 -1 98 -716964865 948470033 -1063762943 -589470957
            -989769292 -123207544 -2138551656 16515320</internalNodes>
          <leafValues>
            -8.3880597352981567e-01 7.6701337099075317e-01</leafValues></_>
        <_>
          <internalNodes>
            0 -1 60 1347023863 -233781424 1073796567 -977217838
            -528375654 -1139808117 -796387169 2146336535</internalNodes>
          <leafValues>
            -6.0304659605026245e-01 6.1882054805755615e-01</leafValues></_>
        <_>
          <internalNodes>
            0 -1 42 -2147483432 -1818164842 33554703 420677648
            -1442840440 -603316070 135432363 487063577</internalNodes>
          <leafValues>
            -6.3277220726013184e-01 5.5084782838821411e-01</leafValues></_>
        <_>
          <internalNodes>
            0 -1 63 286265457 1527251993 -737077161 487673947
            -1601138296 -1104639608 -939375733 1496056225</internalNodes>
          <leafValues>
            -5.9586185216903687e-01 5.8876651525497437e-01</leafValues></_>
        <_>
          <internalNodes>
            0 -1 17 2080320803 -1782083569 214044 -749599435 -2134179772
            -939310780 -788311998 -10391806</internalNodes>
          <leafValues>
            -7.3864084482192993e-01 4.7644925117492676e-01</leafValues></_>
        <_>
          <internalNodes>
            0 -1 90 98392027 995688748 1359552983 487933249 1149254075
            -125046143 -158781185 984267483</internalNodes>
          <leafValues>
            -6.2068676948547363e-01 5.9806120395660400e-01</leafValues></_>
        <_>
          <internalNodes>
            0 -1 77 1099748796 -172345008 285217932 521994269 164344
            -1626338392 -1743024998 -1895301100</internalNodes>
          <leafValues>
            -7.4047350883483887e-01 4.8506680130958557e-01</leafValues></_></weakClassifiers></_>
    <!-- stage 8 -->
    <_>
      <maxWeakCount>5</maxWeakCount>
      <stageThreshold>-4.6151441335678101e-01</stageThreshold>
      <weakClassifiers>
        <_>
          <internalNodes>
            0 -1 21 -65 -1 -1 -1 -51337 -134905934 -34817 2075154227</internalNodes>
          <leafValues>
            -5.6066948175430298e-01 7.9702049493789673e-01</leafValues></_>
        <_>
          <internalNodes>
            0 -1 109 -262145 499085247 -1 -1074792785 -1 194672383
            2147483647 939524095</internalNodes>
          <leafValues>
            -4.7720846533775330e-01 6.9398301839828491e-01</leafValues></_>
        <_>
          <internalNodes>
            0 -1 67 273695217 -211715955 176228797 -541249355 809548237
            -1443198776 -371709409 2131272140</internalNodes>
          <leafValues>
            -6.1478638648986816e-01 5.9160828590393066e-01</leafValues></_>
        <_>
          <internalNodes>
            0 -1 10 -698032406 -783216486 151034403 -586071808
            -2004289317 -1504657408 -1850892149 -453382121</internalNodes>
          <leafValues>
            -6.0814327001571655e-01 5.6824469566345215e-01</leafValues></_>
        <_>
          <internalNodes>
            0 -1 29 -327833 -13238283 2134900531 -5046342 -9371728
            -13565965 -9895937 -43780749</internalNodes>
          <leafValues>
            -5.4969185590744019e-01 6.2290519475936890e-01</leafValues></_></weakClassifiers></_>
    <!-- stage 9 -->
    <_>
      <maxWeakCount>6</maxWeakCount>
      <stageThreshold>-1.0889627933502197e+00</stageThreshold>
      <weakClassifiers>
        <_>
          <internalNodes>
            0 -1 108 -1124074241 16645374 -16777473 33030143 -1090519041
            16774653 1308622271 11530990</internalNodes>
          <leafValues>
            -6.3017034530639648e-01 7.7804803848266602e-01</leafValues></_>
        <_>
          <internalNodes>
            0 -1 79 456137821 924385437 -1660853807 -1182558973
            1258496440 -91714943 310458843 2141793499</internalNodes>
          <leafValues>
            -6.6688644886016846e-01 5.6987220048904419e-01</leafValues></_>
        <_>
          <internalNodes>
            0 -1 49 -1031353312 -767275690 -1153363668 -174489574
            -2054585169 -7681892 9142408 2141962632</internalNodes>
          <leafValues>
            -6.1933988332748413e-01 5.3351914882659912e-01</leafValues></_>
        <_>
          <internalNodes>
            0 -1 3 -282663173 221400946 -407387423 -1145852165
            -844051240 -1906118731 -1238087448 -1343230405</internalNodes>
          <leafValues>
            -4.9658873677253723e-01 6.7763900756835938e-01</leafValues></_>
        <_>
          <internalNodes>
            0 -1 53 1393564472 -141291303 155784565 -103542647 176193969
            -1701377888 -1971246693 209721936</internalNodes>
          <leafValues>
            -7.3281133174896240e-01 4.5185410976409912e-01</leafValues></_>
        <_>
          <internalNodes>
            0 -1 2 -1259786822 -2028666603 528391 -673902055 -661018448
            1501882496 -1711264017 -1075168310</internalNodes>
          <leafValues>
            -5.8814316987991333e-01 5.7403445243835449e-01</leafValues></_></weakClassifiers></_>
    <!-- stage 10 -->
    <_>
      <maxWeakCount>6</maxWeakCount>
      <stageThreshold>-4.7928342223167419e-01</stageThreshold>
      <weakClassifiers>
        <_>
          <internalNodes>
            0 -1 56 1879841280 -81985024 286265905 1068110108
            -1475626356 -578055423 -1388262900 201899276</internalNodes>
          <leafValues>
            -7.6758408546447754e-01 7.5630003213882446e-01</leafValues></_>
        <_>
          <internalNodes>
            0 -1 61 1342264661 1062420549 352650747 -66003689 1208527867
            1065386130 -1048472069 1074852439</internalNodes>
          <leafValues>
            -6.3577109575271606e-01 6.0518878698348999e-01</leafValues></_>
        <_>
          <internalNodes>
            0 -1 114 -839915557 1281224303 -823136396 1282397797
            1288984060 -1895964681 -858915624 -2133462209</internalNodes>
          <leafValues>
            -5.5447763204574585e-01 6.0049897432327271e-01</leafValues></_>
        <_>
          <internalNodes>
            0 -1 37 1509510525 -662060649 -1002159741 -654307327
            1321488245 820641854 -116755800 1875857800</internalNodes>
          <leafValues>
            -7.2633290290832520e-01 4.5618513226509094e-01</leafValues></_>
        <_>
          <internalNodes>
            0 -1 105 -27798512 -579677788 -2013114352 402707040
            -1073679840 -929554393 -394165672 -38275877</internalNodes>
          <leafValues>
            -6.4073592424392700e-01 5.1125693321228027e-01</leafValues></_>
        <_>
          <internalNodes>
            0 -1 59 1493173604 2064992349 -1853874863 1460787521
            -1035433846 -885520296 704645338 454559752</internalNodes>
          <leafValues>
            -7.0231109857559204e-01 4.5844191312789917e-01</leafValues></_></weakClassifiers></_>
    <!-- stage 11 -->
    <_>
      <maxWeakCount>7</maxWeakCount>
      <stageThreshold>-7.5736093521118164e-01</stageThreshold>
      <weakClassifiers>
        <_>
          <internalNodes>
            0 -1 89 -2131820802 -788409071 2147336469 -253 -1 -41943041
            -3109 997997053</internalNodes>
          <leafValues>
            -6.9767439365386963e-01 7.5685340166091919e-01</leafValues></_>
        <_>
          <internalNodes>
            0 -1 32 -456526851 -1954460861 -1601388449 1896694273
            -1056476809 1631612944 -1031378385 1711491695</internalNodes>
          <leafValues>
            -6.2808346748352051e-01 5.3124207258224487e-01</leafValues></_>
        <_>
          <internalNodes>
            0 -1 7 -973092929 -1937068655 -1892022016 -1615089681
            -539390307 -852021417 -814463832 -1409292317</internalNodes>
          <leafValues>
            -4.3788507580757141e-01 7.0457351207733154e-01</leafValues></_>
        <_>
          <internalNodes>
            0 -1 57 -1332733712 -586981312 152113621 1364263201
            -64189768 -273970933 -1945572935 457185284</internalNodes>
          <leafValues>
            -7.5132215023040771e-01 4.1640987992286682e-01</leafValues></_>
        <_>
          <internalNodes>
            0 -1 110 -216794667 353571089 25235712 805373968 -1610563544
            -1608867584 -2013101942 -856164117</internalNodes>
          <leafValues>
            -5.3267574310302734e-01 5.9028655290603638e-01</leafValues></_>
        <_>
          <internalNodes>
            0 -1 80 1986261781 -243795419 1862201279 -618438812
            638686132 -1247812827 -1248196852 -1087724014</internalNodes>
          <leafValues>
            -5.7687085866928101e-01 5.8157801628112793e-01</leafValues></_>
        <_>
          <internalNodes>
            0 -1 69 -129641515 -1757724131 -2147463683 1979277405
            -2138969660 -561194616 -1970081123 2145745239</internalNodes>
          <leafValues>
            -6.0236537456512451e-01 5.1898735761642456e-01</leafValues></_></weakClassifiers></_>
    <!-- stage 12 -->
    <_>
      <maxWeakCount>7</maxWeakCount>
      <stageThreshold>-7.4939727783203125e-01</stageThreshold>
      <weakClassifiers>
        <_>
          <internalNodes>
            0 -1 95 -84281860 150994942 605006335 150982655 -268437762
            721420015 -1073763841 150993405</internalNodes>
          <leafValues>
            -6.0629922151565552e-01 7.6257908344268799e-01</leafValues></_>
        <_>
          <internalNodes>
            0 -1 18 -389 -268697748 -4460778 -6099061 -9175292
            -1350568092 -557206 -9998573</internalNodes>
          <leafValues>
            -4.2403385043144226e-01 6.4134556055068970e-01</leafValues></_>
        <_>
          <internalNodes>
            0 -1 72 -538082598 -848821993 17891600 1903900074
            -2000572229 441221808 -1442532726 460662762</internalNodes>
          <leafValues>
            -6.7518740892410278e-01 4.6365898847579956e-01</leafValues></_>
        <_>
          <internalNodes>
            0 -1 38 -811604061 -2122602464 1609540066 -1927030232
            -729836610 -1736982679 903505283 -477371689</internalNodes>
          <leafValues>
            -4.6695148944854736e-01 6.3816785812377930e-01</leafValues></_>
        <_>
          <internalNodes>
            0 -1 78 1160048724 -651046848 -2063498987 -721387500
            -1609914148 -1920859922 1082249898 135811124</internalNodes>
          <leafValues>
            -6.2596738338470459e-01 5.0639402866363525e-01</leafValues></_>
        <_>
          <internalNodes>
            0 -1 92 -671617520 1695303939 -2129985007 1595147265 9801732
            -1946091389 1216940713 1141334699</internalNodes>
          <leafValues>
            -7.2661125659942627e-01 4.3954375386238098e-01</leafValues></_>
        <_>
          <internalNodes>
            0 -1 96 691280863 -1847377894 -1827040809 -1189478229
            -2146744131 -125597692 -1202222961 1809563723</internalNodes>
          <leafValues>
            -6.3446748256683350e-01 4.6692723035812378e-01</leafValues></_></weakClassifiers></_>
    <!-- stage 13 -->
    <_>
      <maxWeakCount>7</maxWeakCount>
      <stageThreshold>-5.2900332212448120e-01</stageThreshold>
      <weakClassifiers>
        <_>
          <internalNodes>
            0 -1 23 -8929501 -9 -194 -1182 2004317985 2004320119
            2004301687 1936159602</internalNodes>
          <leafValues>
            -6.7551624774932861e-01 7.5245463848114014e-01</leafValues></_>
        <_>
          <internalNodes>
            0 -1 5 -75578914 -934871029 1346896067 -532643840
            -2138275700 -1058372984 -1062240117 1696645315</internalNodes>
          <leafValues>
            -6.5788006782531738e-01 5.1285660266876221e-01</leafValues></_>
        <_>
          <internalNodes>
            0 -1 88 530002007 1927480576 84034059 1970779271 1074477295
            973278730 2026500825 1543235291</internalNodes>
          <leafValues>
            -6.0440313816070557e-01 5.0898694992065430e-01</leafValues></_>
        <_>
          <internalNodes>
            0 -1 106 -233326080 -1761427438 721690 -2146954992
            1628254232 -125074425 -928841477 -33566305</internalNodes>
          <leafValues>
            -6.3210779428482056e-01 4.7238659858703613e-01</leafValues></_>
        <_>
          <internalNodes>
            0 -1 27 -2138127152 -36626300 438323707 -578338556 146856186
            -142606143 554354975 2130804234</internalNodes>
          <leafValues>
            -5.5703479051589966e-01 5.4879534244537354e-01</leafValues></_>
        <_>
          <internalNodes>
            0 -1 12 1621092543 -1979576800 -8587403 -1996397790 -1
            -1627852815 -134781453 -221036349</internalNodes>
          <leafValues>
            -4.4097411632537842e-01 6.9631636142730713e-01</leafValues></_>
        <_>
          <internalNodes>
            0 -1 39 770643376 -1131929407 -1869532664 -1790752615
            -1991736224 -1610481630 -897508615 -8967582</internalNodes>
          <leafValues>
            -5.9938257932662964e-01 5.2073371410369873e-01</leafValues></_></weakClassifiers></_>
    <!-- stage 14 -->
    <_>
      <maxWeakCount>7</maxWeakCount>
      <stageThreshold>-4.9619519710540771e-01</stageThreshold>
      <weakClassifiers>
        <_>
          <internalNodes>
            0 -1 65 1065117044 -47111 -295563 -49291 1072969205 -8437899
            -387791 2138636544</internalNodes>
          <leafValues>
            -5.0724637508392334e-01 7.6384663581848145e-01</leafValues></_>
        <_>
          <internalNodes>
            0 -1 68 -1323990610 -682065660 536973639 -1655464285
            805427050 981630976 -2096897377 807088774</internalNodes>
          <leafValues>
            -5.6392294168472290e-01 5.5700457096099854e-01</leafValues></_>
        <_>
          <internalNodes>
            0 -1 115 -831521057 -957354260 -269688851 -873468163
            -50860802 -1393570050 -974741796 -869802593</internalNodes>
          <leafValues>
            -5.0773721933364868e-01 5.8753418922424316e-01</leafValues></_>
        <_>
          <internalNodes>
            0 -1 102 -268307446 1897044051 8399002 273191186 -1060339704
            -1194196982 302514218 -1165243649</internalNodes>
          <leafValues>
            -5.6466835737228394e-01 5.2540189027786255e-01</leafValues></_>
        <_>
          <internalNodes>
            0 -1 11 -489520418 -784187136 352371220 -653375480
            1216930456 -1149184984 -929324885 -119582365</internalNodes>
          <leafValues>
            -5.4362332820892334e-01 5.6725561618804932e-01</leafValues></_>
        <_>
          <internalNodes>
            0 -1 85 -1769565741 1576826876 -343993381 -539263653
            -1213631309 -606213 520883368 -1880227654</internalNodes>
          <leafValues>
            -4.6976533532142639e-01 6.6377615928649902e-01</leafValues></_>
        <_>
          <internalNodes>
            0 -1 0 -1937513168 -1051745999 -1056817135 1502691672
            -1056849221 -394219390 -351638887 260450688</internalNodes>
          <leafValues>
            -6.6110837459564209e-01 4.5312228798866272e-01</leafValues></_></weakClassifiers></_>
    <!-- stage 15 -->
    <_>
      <maxWeakCount>7</maxWeakCount>
      <stageThreshold>-6.0671406984329224e-01</stageThreshold>
      <weakClassifiers>
        <_>
          <internalNodes>
            0 -1 6 -1014313652 -1006140413 16850950 -1039794156
            -2142601076 -1911947256 -2080208470 742657092</internalNodes>
          <leafValues>
            -9.3886464834213257e-01 7.2457504272460938e-01</leafValues></_>
        <_>
          <internalNodes>
            0 -1 34 2113110013 -1 -8431841 -32769 -1353449424 -163843
            -839102675 -17154</internalNodes>
          <leafValues>
            -4.2920598387718201e-01 6.2981683015823364e-01</leafValues></_>
        <_>
          <internalNodes>
            0 -1 111 -569126760 1342251392 -2147401471 -66051829
            -1878947832 -1879048192 -1593628668 -794041745</internalNodes>
          <leafValues>
            -5.9473109245300293e-01 4.6692007780075073e-01</leafValues></_>
        <_>
          <internalNodes>
            0 -1 1 -523055926 -805109497 1073743259 -2059320959
            1216587240 -392232928 1078184587 1162936385</internalNodes>
          <leafValues>
            -6.7155188322067261e-01 4.3204274773597717e-01</leafValues></_>
        <_>
          <internalNodes>
            0 -1 9 -984692705 -788480000 425989 1497464832 1085178025
            -1073100661 -2147448757 -347897533</internalNodes>
          <leafValues>
            -5.4402309656143188e-01 5.4623854160308838e-01</leafValues></_>
        <_>
          <internalNodes>
            0 -1 64 52449324 526323679 522718493 1602028975 456961791
            1204633024 2130707355 -548496117</internalNodes>
          <leafValues>
            -5.3306949138641357e-01 5.4740345478057861e-01</leafValues></_>
        <_>
          <internalNodes>
            0 -1 66 310468053 367087749 -2130681723 -1719216119 33570959
            -2004874966 -1985886005 1864597640</internalNodes>
          <leafValues>
            -7.0083159208297729e-01 4.4169473648071289e-01</leafValues></_></weakClassifiers></_>
    <!-- stage 16 -->
    <_>
      <maxWeakCount>7</maxWeakCount>
      <stageThreshold>-7.4240928888320923e-01</stageThreshold>
      <weakClassifiers>
        <_>
          <internalNodes>
            0 -1 62 221910289 1073709055 1073692663 2147467261 528417297
            -1610661889 1064513397 1073515967</internalNodes>
          <leafValues>
            -5.9605908393859863e-01 7.7170610427856445e-01</leafValues></_>
        <_>
          <internalNodes>
            0 -1 99 -234321424 -647737335 -1723854435 1437443080
            -1601666420 -1148256127 -1464308564 455606288</internalNodes>
          <leafValues>
            -5.4366463422775269e-01 5.4929113388061523e-01</leafValues></_>
        <_>
          <internalNodes>
            0 -1 55 -891507072 -2038087542 -1025694891 -1340112829
            539296853 1329760848 -133392000 -930624497</internalNodes>
          <leafValues>
            -5.9603220224380493e-01 4.9671447277069092e-01</leafValues></_>
        <_>
          <internalNodes>
            0 -1 40 33597592 -228588518 -1992130025 1396813826
            -1476347238 -335347431 -2147448614 260112940</internalNodes>
          <leafValues>
            -6.0014933347702026e-01 4.9205479025840759e-01</leafValues></_>
        <_>
          <internalNodes>
            0 -1 82 911464959 363350993 -1190521473 211214749 1309284287
            -1559739997 1208092857 1248591796</internalNodes>
          <leafValues>
            -5.8335179090499878e-01 5.1080703735351562e-01</leafValues></_>
        <_>
          <internalNodes>
            0 -1 13 -259620582 -536738558 -2147467254 -268410624
            1611432139 -1073708989 -2140634559 -46683821</internalNodes>
          <leafValues>
            -6.4186966419219971e-01 4.6976688504219055e-01</leafValues></_>
        <_>
          <internalNodes>
            0 -1 45 -284146499 -1309339911 -268820705 -105245147
            -1126167333 2078896055 486325727 -1731719011</internalNodes>
          <leafValues>
            -5.4237276315689087e-01 6.3376671075820923e-01</leafValues></_></weakClassifiers></_>
    <!-- stage 17 -->
    <_>
      <maxWeakCount>7</maxWeakCount>
      <stageThreshold>-5.9822845458984375e-01</stageThreshold>
      <weakClassifiers>
        <_>
          <internalNodes>
            0 -1 51 603400066 2147446590 2134900154 -549437524 937733762
            -1105133668 1182257091 587203840</internalNodes>
          <leafValues>
            -5.6200528144836426e-01 7.5669980049133301e-01</leafValues></_>
        <_>
          <internalNodes>
            0 -1 103 1901544582 -803930009 9535765 -1792966575
            1342701744 271778960 -670956981 16762472</internalNodes>
          <leafValues>
            -7.0220839977264404e-01 4.9870234727859497e-01</leafValues></_>
        <_>
          <internalNodes>
            0 -1 54 1950571350 -1723821926 -2112748332 -1916763958
            684311711 -1341644736 -1601656648 2130936476</internalNodes>
          <leafValues>
            -5.5124199390411377e-01 5.5086404085159302e-01</leafValues></_>
        <_>
          <internalNodes>
            0 -1 52 -2063073134 -1659764720 -1995439655 1023410328
            940102578 -2113404800 -366933057 -1356067729</internalNodes>
          <leafValues>
            -5.7549637556076050e-01 5.1727390289306641e-01</leafValues></_>
        <_>
          <internalNodes>
            0 -1 47 413798829 2076196881 25702745 -1987788479 1413482676
            -880672736 -369047763 -117389271</internalNodes>
          <leafValues>
            -6.0673266649246216e-01 5.0342470407485962e-01</leafValues></_>
        <_>
          <internalNodes>
            0 -1 44 1560333748 -547937232 933776013 -1853799383
            -1129258774 -554377379 -2060411207 -1995864680</internalNodes>
          <leafValues>
            -5.0468027591705322e-01 6.6367459297180176e-01</leafValues></_>
        <_>
          <internalNodes>
            0 -1 84 -636237804 -1686891512 790571860 1564599345
            -52126312 -1048819 -1216998248 -275168250</internalNodes>
          <leafValues>
            -5.5802518129348755e-01 6.0111975669860840e-01</leafValues></_></weakClassifiers></_>
    <!-- stage 18 -->
    <_>
      <maxWeakCount>7</maxWeakCount>
      <stageThreshold>-4.0411728620529175e-01</stageThreshold>
      <weakClassifiers>
        <_>
          <internalNodes>
            0 -1 75 408953872 913842048 528072607 1982930804 360230212
            1070873860 523245500 17039380</internalNodes>
          <leafValues>
            -5.3763443231582642e-01 7.5120192766189575e-01</leafValues></_>
        <_>
          <internalNodes>
            0 -1 50 800800639 -167821377 263913566 -80130 -1879162981
            -573513 50267272 1073649118</internalNodes>
          <leafValues>
            -4.7027301788330078e-01 6.2892174720764160e-01</leafValues></_>
        <_>
          <internalNodes>
            0 -1 28 -809261190 664850386 247367753 -134756491 -545420132
            -828215470 779616400 -68948166</internalNodes>
          <leafValues>
            -4.8007887601852417e-01 6.4068120718002319e-01</leafValues></_>
        <_>
          <internalNodes>
            0 -1 112 -805047493 -234659829 84086832 1895904035
            1076011266 -1342172926 -1340497408 -928910711</internalNodes>
          <leafValues>
            -5.2613168954849243e-01 5.6783765554428101e-01</leafValues></_>
        <_>
          <internalNodes>
            0 -1 86 -1032632547 -102429042 285376517 -196968079
            539144763 -933101543 545914927 160305199</internalNodes>
          <leafValues>
            -5.2763181924819946e-01 5.6207239627838135e-01</leafValues></_>
        <_>
          <internalNodes>
            0 -1 16 -93585473 -889345334 -29401417 -420444670 1568085477
            -127666832 2012473220 -196622585</internalNodes>
          <leafValues>
            -4.9429738521575928e-01 6.5626323223114014e-01</leafValues></_>
        <_>
          <internalNodes>
            0 -1 76 -705613074 352682228 1375731822 1942557037 277655772
            20120080 302770414 864041631</internalNodes>
          <leafValues>
            -7.5164765119552612e-01 4.4303092360496521e-01</leafValues></_></weakClassifiers></_>
    <!-- stage 19 -->
    <_>
      <maxWeakCount>7</maxWeakCount>
      <stageThreshold>-2.6311594247817993e-01</stageThreshold>
      <weakClassifiers>
        <_>
          <internalNodes>
            0 -1 36 403190556 1224769546 34636164 1368916272 -2147483124
            -704019382 -973035516 -671046396</internalNodes>
          <leafValues>
            -8.1949460506439209e-01 7.3824131488800049e-01</leafValues></_>
        <_>
          <internalNodes>
            0 -1 91 105850871 315687255 8737057 1472791552 -1069367151
            -1711243136 1216381067 1842862223</internalNodes>
          <leafValues>
            -5.4406493902206421e-01 6.3558584451675415e-01</leafValues></_>
        <_>
          <internalNodes>
            0 -1 113 -185862505 -67666381 1073545015 -1175458187
            337839146 68709384 70272031 -936653745</internalNodes>
          <leafValues>
            -4.3615835905075073e-01 7.5591450929641724e-01</leafValues></_>
        <_>
          <internalNodes>
            0 -1 46 -244056598 -2131965344 1105971626 1095434256
            1079215574 233799351 1425151671 -613625613</internalNodes>
          <leafValues>
            -5.5474144220352173e-01 6.1773073673248291e-01</leafValues></_>
        <_>
          <internalNodes>
            0 -1 97 -554960245 2033450538 1244666002 -1873755409
            1985783912 38838596 -127270770 -481840370</internalNodes>
          <leafValues>
            -4.8047503829002380e-01 6.4628309011459351e-01</leafValues></_>
        <_>
          <internalNodes>
            0 -1 48 -2086497264 1481150768 1074397534 -686161643
            -1971289536 -1282735923 1091576027 188829792</internalNodes>
          <leafValues>
            -6.5884017944335938e-01 4.9297109246253967e-01</leafValues></_>
        <_>
          <internalNodes>
            0 -1 100 -1239891719 286588937 134283865 2102989073
            180388761 -401694584 -1553986326 -1140842192</internalNodes>
          <leafValues>
            -6.0564666986465454e-01 5.5596387386322021e-01</leafValues></_></weakClassifiers></_></stages>
  <features>
    <_>
      <rect>
        0 0 5 5</rect></_>
    <_>
      <rect>
        0 4 9 3</rect></_>
    <_>
      <rect>
        0 5 13 4</rect></_>
    <_>
      <rect>
        0 6 4 4</rect></_>
    <_>
      <rect>
        0 6 4 5</rect></_>
    <_>
      <rect>
        0 6 8 11</rect></_>
    <_>
      <rect>
        0 6 13 9</rect></_>
    <_>
      <rect>
        0 7 4 3</rect></_>
    <_>
      <rect>
        0 7 13 8</rect></_>
    <_>
      <rect>
        0 9 3 9</rect></_>
    <_>
      <rect>
        0 9 8 4</rect></_>
    <_>
      <rect>
        0 10 6 3</rect></_>
    <_>
      <rect>
        0 11 2 6</rect></_>
    <_>
      <rect>
        0 13 2 7</rect></_>
    <_>
      <rect>
        0 17 3 5</rect></_>
    <_>
      <rect>
        0 21 2 4</rect></_>
    <_>
      <rect>
        0 22 2 2</rect></_>
    <_>
      <rect>
        0 22 2 4</rect></_>
    <_>
      <rect>
        0 24 2 3</rect></_>
    <_>
      <rect>
        0 24 4 5</rect></_>
    <_>
      <rect>
        0 24 12 5</rect></_>
    <_>
      <rect>
        0 25 7 4</rect></_>
    <_>
      <rect>
        0 26 7 4</rect></_>
    <_>
      <rect>
        0 27 3 2</rect></_>
    <_>
      <rect>
        0 27 4 3</rect></_>
    <_>
      <rect>
        0 27 6 3</rect></_>
    <_>
      <rect>
        0 28 5 2</rect></_>
    <_>
      <rect>
        1 4 10 2</rect></_>
    <_>
      <rect>
        1 8 3 3</rect></_>
    <_>
      <rect>
        1 18 2 5</rect></_>
    <_>
      <rect>
        1 24 13 5</rect></_>
    <_>
      <rect>
        1 27 2 4</rect></_>
    <_>
      <rect>
        1 29 3 2</rect></_>
    <_>
      <rect>
        1 30 13 2</rect></_>
    <_>
      <rect>
        1 31 2 2</rect></_>
    <_>
      <rect>
        2 11 9 3</rect></_>
    <_>
      <rect>
        2 18 12 4</rect></_>
    <_>
      <rect>
        2 31 3 2</rect></_>
    <_>
      <rect>
        3 6 3 2</rect></_>
    <_>
      <rect>
        3 6 10 4</rect></_>
    <_>
      <rect>
        4 3 7 2</rect></_>
    <_>
      <rect>
        4 10 10 4</rect></_>
    <_>
      <rect>
        4 20 8 1</rect></_>
    <_>
      <rect>
        4 22 6 4</rect></_>
    <_>
      <rect>
        4 22 8 1</rect></_>
    <_>
      <rect>
        4 24 4 1</rect></_>
    <_>
      <rect>
        5 7 3 1</rect></_>
    <_>
      <rect>
        5 9 10 3</rect></_>
    <_>
      <rect>
        5 12 10 1</rect></_>
    <_>
      <rect>
        5 29 3 1</rect></_>
    <_>
      <rect>
        5 31 4 1</rect></_>
    <_>
      <rect>
        6 16 9 2</rect></_>
    <_>
      <rect>
        6 19 7 1</rect></_>
    <_>
      <rect>
        6 24 3 1</rect></_>
    <_>
      <rect>
        6 31 2 1</rect></_>
    <_>
      <rect>
        7 7 9 2</rect></_>
    <_>
      <rect>
        7 10 11 4</rect></_>
    <_>
      <rect>
        7 12 9 2</rect></_>
    <_>
      <rect>
        7 26 11 4</rect></_>
    <_>
      <rect>
        8 22 7 1</rect></_>
    <_>
      <rect>
        8 27 5 3</rect></_>
    <_>
      <rect>
        9 29 8 1</rect></_>
    <_>
      <rect>
        9 32 4 1</rect></_>
    <_>
      <rect>
        10 12 6 1</rect></_>
    <_>
      <rect>
        10 19 7 2</rect></_>
    <_>
      <rect>
        10 28 2 2</rect></_>
    <_>
      <rect>
        10 33 8 1</rect></_>
    <_>
      <rect>
        11 12 6 2</rect></_>
    <_>
      <rect>
        11 15 6 3</rect></_>
    <_>
      <rect>
        11 28 3 2</rect></_>
    <_>
      <rect>
        12 8 5 10</rect></_>
    <_>
      <rect>
        12 11 8 3</rect></_>
    <_>
      <rect>
        12 16 5 3</rect></_>
    <_>
      <rect>
        12 25 5 4</rect></_>
    <_>
      <rect>
        13 8 5 10</rect></_>
    <_>
      <rect>
        13 13 5 1</rect></_>
    <_>
      <rect>
        13 18 5 1</rect></_>
    <_>
      <rect>
        13 26 5 1</rect></_>
    <_>
      <rect>
        14 3 8 2</rect></_>
    <_>
      <rect>
        14 33 4 1</rect></_>
    <_>
      <rect>
        15 18 7 1</rect></_>
    <_>
      <rect>
        15 33 5 1</rect></_>
    <_>
      <rect>
        16 30 5 1</rect></_>
    <_>
      <rect>
        16 32 4 1</rect></_>
    <_>
      <rect>
        18 10 3 1</rect></_>
    <_>
      <rect>
        18 20 4 1</rect></_>
    <_>
      <rect>
        19 4 7 4</rect></_>
    <_>
      <rect>
        19 6 7 6</rect></_>
    <_>
      <rect>
        19 31 2 1</rect></_>
    <_>
      <rect>
        20 24 3 5</rect></_>
    <_>
      <rect>
        20 31 3 1</rect></_>
    <_>
      <rect>
        20 32 3 1</rect></_>
    <_>
      <rect>
        22 6 6 4</rect></_>
    <_>
      <rect>
        22 24 6 5</rect></_>
    <_>
      <rect>
        22 26 6 4</rect></_>
    <_>
      <rect>
        22 29 6 2</rect></_>
    <_>
      <rect>
        22 33 4 1</rect></_>
    <_>
      <rect>
        25 6 5 2</rect></_>
    <_>
      <rect>
        25 21 5 5</rect></_>
    <_>
      <rect>
        25 23 3 1</rect></_>
    <_>
      <rect>
        25 24 3 1</rect></_>
    <_>
      <rect>
        25 25 5 4</rect></_>
    <_>
      <rect>
        26 6 4 2</rect></_>
    <_>
      <rect>
        27 28 4 2</rect></_>
    <_>
      <rect>
        28 6 4 5</rect></_>
    <_>
      <rect>
        28 7 4 5</rect></_>
    <_>
      <rect>
        28 8 4 3</rect></_>
    <_>
      <rect>
        28 27 4 2</rect></_>
    <_>
      <rect>
        28 28 4 2</rect></_>
    <_>
      <rect>
        28 28 4 3</rect></_>
    <_>
      <rect>
        31 10 3 8</rect></_>
    <_>
      <rect>
        31 19 3 4</rect></_>
    <_>
      <rect>
        33 23 2 3</rect></_>
    <_>
      <rect>
        34 12 2 5</rect></_>
    <_>
      <rect>
        34 22 2 3</rect></_>
    <_>
      <rect>
        34 24 2 3</rect></_>
    <_>
      <rect>
        34 26 2 2</rect></_></features></cascade>
</opencv_storage>
